<?xml version="1.0" encoding="UTF-8"?>
<!-- This network was created in GeNIe Academic, which can be used for academic teaching and research purposes only -->
<smile version="1.0" id="diabetes_prediction_dataset_discretized" numsamples="10000" discsamples="10000">
	<nodes>
		<cpt id="Gender">
			<state id="Female" />
			<state id="Male" />
			<state id="Other" />
			<probabilities>0.5855174781585518 0.41429919034143 0.0001833315000183331</probabilities>
		</cpt>
		<cpt id="Age">
			<state id="s1_below_10" />
			<state id="s2_10_20" />
			<state id="s3_20_30" />
			<state id="s4_30_40" />
			<state id="s5_40_50" />
			<state id="s6_50_60" />
			<state id="s7_60_70" />
			<state id="s8_70_up" />
			<probabilities>0.106220187798122 0.102820221797782 0.128289967100329 0.131389936100639 0.146649783502165 0.148309766902331 0.112760122398776 0.123560014399856</probabilities>
		</cpt>
		<cpt id="Smoking_History">
			<state id="current" />
			<state id="ever" />
			<state id="former" />
			<state id="never" />
			<state id="SNo_Info" />
			<state id="Snot_current" />
			<parents>Gender Age</parents>
			<probabilities>0.002165341606877383 0.0002262297201215177 3.231853144593109e-05 0.1212268114536875 0.8565380389115118 0.01981125977635576 0.04109382537385432 0.01269295706705258 0.01251205981669079 0.4025265315967197 0.4795887602508441 0.0515858658948384 0.1279800479164212 0.04868229841718708 0.05327756176112487 0.4399866462432741 0.2594752759121794 0.07059816974981345 0.1186251873455665 0.04413253939320291 0.06491270709280189 0.4309353100822296 0.2734435127800057 0.06795074330619355 0.1295006470274797 0.05025881099185508 0.08679683337139379 0.4142688589480095 0.2578404506356094 0.06133439902565275 0.1003312916522208 0.05017527639739591 0.1121191109056589 0.4167533418082361 0.2484880003081783 0.07213297892831004 0.07594773267224461 0.04805805185414731 0.1486158454705092 0.3819595083152567 0.2587800847019936 0.08663877698584857 0.03649117996526827 0.02840233982268531 0.1412348048624441 0.4168037656521342 0.2882049172836121 0.08886299241385615 0.001861004332174019 0.000579657087070596 0.0002135578741839038 0.1226737445847824 0.8534077735066201 0.02126426261516871 0.03496037590293849 0.005715688337190546 0.00824040956588821 0.3337190546321621 0.5676765551581456 0.04968791640367487 0.1673195084485407 0.04842549923195083 0.05487711213517664 0.3571812596006144 0.320084485407066 0.05211213517665129 0.1549921943935383 0.05114369103373378 0.08189099300889159 0.364725446277065 0.2804248964908708 0.06682277879590036 0.1664691274410204 0.05556496218534824 0.09281521616435263 0.3574613387515521 0.2601027203973361 0.06758663506039057 0.1358534347849549 0.05766013706761642 0.1567373590200205 0.3189520263342507 0.2614807619664346 0.06931628082672278 0.1018173023770038 0.06243090105030402 0.2299267551133223 0.2730444997236042 0.2601920950801547 0.07258844665561082 0.04979594523433385 0.05710242232754081 0.2514152185360716 0.242528962611901 0.3116442864665613 0.08751316482359135 0.03333333333333333 0.03333333333333333 0.03333333333333333 0.03333333333333333 0.2333333333333334 0.6333333333333333 0.04166666666666666 0.04166666666666666 0.04166666666666666 0.04166666666666666 0.5416666666666666 0.2916666666666667 0.03333333333333333 0.2333333333333334 0.03333333333333333 0.03333333333333333 0.2333333333333334 0.4333333333333333 0.08333333333333333 0.08333333333333333 0.08333333333333333 0.08333333333333333 0.08333333333333333 0.5833333333333334 0.04166666666666667 0.04166666666666667 0.04166666666666667 0.7916666666666669 0.04166666666666667 0.04166666666666667 0.04166666666666666 0.04166666666666666 0.04166666666666666 0.04166666666666666 0.5416666666666666 0.2916666666666667 0.1666666666666667 0.1666666666666667 0.1666666666666667 0.1666666666666667 0.1666666666666667 0.1666666666666667 0.1666666666666667 0.1666666666666667 0.1666666666666667 0.1666666666666667 0.1666666666666667 0.1666666666666667</probabilities>
		</cpt>
		<cpt id="Hypertension">
			<state id="State0" />
			<state id="State1" />
			<parents>Gender Age Smoking_History</parents>
			<probabilities>0.9583333333333333 0.04166666666666666 0.75 0.25 0.5 0.5 0.9992012779552715 0.0007987220447284345 0.9996604798551381 0.0003395201448619285 0.9951456310679611 0.004854368932038835 0.9934210526315789 0.006578947368421052 0.9929577464788732 0.007042253521126761 0.9928571428571428 0.007142857142857143 0.9984276729559749 0.001572327044025157 0.9994343891402715 0.0005656108597285068 0.9947552447552448 0.005244755244755245 0.9885004599816007 0.01149954001839926 0.9867149758454106 0.01328502415458937 0.9900662251655629 0.009933774834437087 0.9910307898259706 0.008969210174029452 0.9965955515206537 0.003404448479346346 0.9925 0.007500000000000001 0.9646878198567043 0.0353121801432958 0.9574175824175825 0.04258241758241758 0.969158878504673 0.0308411214953271 0.9722300535663941 0.02776994643360586 0.9855619724566859 0.01443802754331408 0.9669642857142857 0.03303571428571429 0.9185022026431718 0.0814977973568282 0.9376417233560091 0.06235827664399093 0.931011826544021 0.06898817345597898 0.9315238357674291 0.06847616423257097 0.971004869411244 0.02899513058875609 0.9526022304832713 0.04739776951672862 0.8670886075949367 0.1329113924050633 0.8793103448275862 0.1206896551724138 0.8810504634397528 0.1189495365602472 0.8673412808428057 0.1326587191571943 0.9351464435146443 0.06485355648535565 0.8952 0.1048 0.85030549898167 0.1496945010183299 0.8504823151125401 0.1495176848874598 0.8140625 0.1859375 0.8136658556366586 0.1863341443633414 0.9105326152004787 0.08946738479952124 0.8580357142857142 0.1419642857142857 0.7209737827715356 0.2790262172284644 0.7716346153846154 0.2283653846153846 0.7677012609117362 0.2322987390882638 0.7617560013153568 0.2382439986846432 0.8756538278649548 0.1243461721350452 0.8297380585516179 0.1702619414483821 0.8636363636363636 0.1363636363636364 0.875 0.125 0.75 0.25 0.9992548435171386 0.0007451564828614009 0.9996783186789621 0.0003216813210379584 0.9957264957264959 0.004273504273504274 0.9970059880239521 0.002994011976047904 0.9821428571428571 0.01785714285714286 0.9875 0.0125 0.9977945809703844 0.002205419029615627 0.99870322341608 0.00129677658391997 0.9978902953586497 0.002109704641350211 0.9828060522696012 0.0171939477303989 0.9976303317535545 0.002369668246445498 0.9769874476987447 0.02301255230125523 0.9835589941972921 0.01644100580270793 0.9910071942446044 0.008992805755395683 0.9977973568281939 0.002202643171806168 0.9337270341207349 0.06627296587926509 0.9583333333333333 0.04166666666666666 0.93424317617866 0.06575682382133995 0.947265625 0.052734375 0.9669811320754716 0.0330188679245283 0.9741641337386018 0.02583586626139818 0.8968495934959351 0.1031504065040651 0.9103343465045592 0.08966565349544073 0.8715846994535519 0.1284153005464481 0.9026988636363636 0.09730113636363637 0.9547820429407938 0.04521795705920625 0.90625 0.09375 0.8625 0.1375 0.8529411764705882 0.1470588235294118 0.8488132094943239 0.1511867905056759 0.8444951801116184 0.1555048198883815 0.932240099009901 0.06775990099009901 0.87995337995338 0.12004662004662 0.8079268292682927 0.1920731707317073 0.7665562913907285 0.2334437086092715 0.7941441441441441 0.2058558558558559 0.8023520485584219 0.1976479514415782 0.9032643312101911 0.09673566878980892 0.8874643874643875 0.1125356125356125 0.7687747035573123 0.2312252964426877 0.7706896551724138 0.2293103448275862 0.7955259026687599 0.2044740973312402 0.7815296989422295 0.2184703010577705 0.8812539582013933 0.1187460417986067 0.8817567567567568 0.1182432432432432 0.5 0.5 0.5 0.5 0.5 0.5 0.5 0.5 0.75 0.25 0.875 0.125 0.5 0.5 0.5 0.5 0.5 0.5 0.5 0.5 0.8333333333333333 0.1666666666666667 0.75 0.25 0.5 0.5 0.75 0.25 0.5 0.5 0.5 0.5 0.75 0.25 0.8333333333333333 0.1666666666666667 0.5 0.5 0.5 0.5 0.5 0.5 0.5 0.5 0.5 0.5 0.75 0.25 0.5 0.5 0.5 0.5 0.5 0.5 0.875 0.125 0.5 0.5 0.5 0.5 0.5 0.5 0.5 0.5 0.5 0.5 0.5 0.5 0.8333333333333333 0.1666666666666667 0.75 0.25 0.5 0.5 0.5 0.5 0.5 0.5 0.5 0.5 0.5 0.5 0.5 0.5 0.5 0.5 0.5 0.5 0.5 0.5 0.5 0.5 0.5 0.5 0.5 0.5</probabilities>
		</cpt>
		<cpt id="BMI">
			<state id="b1_below_20" />
			<state id="b2_20_31" />
			<state id="b3_31_42" />
			<state id="b4_42_52" />
			<state id="b5_52_63" />
			<state id="b6_63_74" />
			<state id="b7_74_84" />
			<state id="b8_84_up" />
			<parents>Gender Age</parents>
			<probabilities>0.7252520845452782 0.2695607911576498 0.00448419623812294 0.0006059724646112081 2.423889858444832e-05 2.423889858444832e-05 2.423889858444832e-05 2.423889858444832e-05 0.2471282561505065 0.6642773154848046 0.07509497105643993 0.01160003617945007 0.001650687409551375 0.0002035094066570188 2.261215629522431e-05 2.261215629522431e-05 0.1014640037704725 0.7177006009190526 0.1445887828443502 0.03112112642865559 0.004256509956403912 0.0007216919995286909 0.0001325556733828208 1.472840815364675e-05 0.06660894397861222 0.6911076680034026 0.1860645278891724 0.04655790497022724 0.007792562887349617 0.001473447563494957 0.0002582330781382914 0.0001367116296026249 0.0572191139529573 0.6877283626398721 0.1982330440739895 0.0464860698789678 0.009262959579812742 0.0008135419045444166 0.0001284539849280658 0.0001284539849280658 0.04416098462960823 0.6670663353750145 0.2314948572749335 0.04924592626834624 0.006948457182480065 0.001054547555761008 1.444585692823298e-05 1.444585692823298e-05 0.04123411837620081 0.683936318562132 0.225306011775643 0.04340331577316393 0.004977533312674311 0.001103966532383018 1.936783390145646e-05 1.936783390145646e-05 0.07350219358376747 0.7676343570057581 0.1409548944337812 0.01646901562928434 0.001251028242391006 0.000154236358650946 1.713737318343844e-05 1.713737318343844e-05 0.7313060589419733 0.2606855207761303 0.006246567819879188 0.0009381292330221491 0.0005720300201354567 2.288120080541827e-05 2.288120080541827e-05 0.0002059308072487644 0.2760624868504102 0.6488796549547654 0.06777298548285293 0.005075741636860929 0.001499053229539238 0.000236692615190406 2.629917946560067e-05 0.0004470860509152114 0.04634216589861751 0.8154665898617511 0.1177707373271889 0.01846198156682028 0.001872119815668203 2.880184331797235e-05 2.880184331797235e-05 2.880184331797235e-05 0.02120240276929342 0.7511962940338016 0.1908216249236408 0.02955100794135614 0.005930564039910405 0.00104357564650784 2.54530645489717e-05 0.0002290775809407453 0.01204283779207586 0.73198865560447 0.2175965120216729 0.03320775482560109 0.004254148323738571 0.0006984422621063326 0.0001904842533017271 2.116491703352523e-05 0.015885543143921 0.7189776590577951 0.2331431115428201 0.0277035777885705 0.004067508499271491 0.0001821272462360369 2.023636069289299e-05 2.023636069289299e-05 0.01080534825870647 0.7373808043117744 0.2253575870646766 0.02345045605306799 0.002928067993366501 2.591210613598673e-05 2.591210613598673e-05 2.591210613598673e-05 0.03122531595576619 0.822102093206951 0.1376629146919431 0.008121050552922591 0.0006171011058451817 2.468404423380727e-05 2.468404423380727e-05 0.0002221563981042654 0.625 0.225 0.025 0.025 0.025 0.025 0.025 0.025 0.03125 0.78125 0.03125 0.03125 0.03125 0.03125 0.03125 0.03125 0.025 0.625 0.225 0.025 0.025 0.025 0.025 0.025 0.0625 0.5625 0.0625 0.0625 0.0625 0.0625 0.0625 0.0625 0.03125 0.28125 0.53125 0.03125 0.03125 0.03125 0.03125 0.03125 0.03125 0.53125 0.28125 0.03125 0.03125 0.03125 0.03125 0.03125 0.125 0.125 0.125 0.125 0.125 0.125 0.125 0.125 0.125 0.125 0.125 0.125 0.125 0.125 0.125 0.125</probabilities>
		</cpt>
		<cpt id="Blood_Glucose_Level">
			<state id="State80" />
			<state id="State85" />
			<state id="State90" />
			<state id="State100" />
			<state id="State126" />
			<state id="State130" />
			<state id="State140" />
			<state id="State145" />
			<state id="State155" />
			<state id="State158" />
			<state id="State159" />
			<state id="State160" />
			<state id="State200" />
			<state id="State220" />
			<state id="State240" />
			<state id="State260" />
			<state id="State280" />
			<state id="State300" />
			<parents>BMI Age Gender Smoking_History</parents>
			<probabilities>0.1172839506172839 0.006172839506172839 0.006172839506172839 0.1172839506172839 0.1172839506172839 0.228395061728395 0.006172839506172839 0.006172839506172839 0.1172839506172839 0.006172839506172839 0.006172839506172839 0.006172839506172839 0.228395061728395 0.006172839506172839 0.006172839506172839 0.006172839506172839 0.006172839506172839 0.006172839506172839 0.02777777777777778 0.02777777777777778 0.02777777777777778 0.02777777777777778 0.02777777777777778 0.02777777777777778 0.5277777777777778 0.02777777777777778 0.02777777777777778 0.02777777777777778 0.02777777777777778 0.02777777777777778 0.02777777777777778 0.02777777777777778 0.02777777777777778 0.02777777777777778 0.02777777777777778 0.02777777777777778 0.05555555555555555 0.05555555555555555 0.05555555555555555 0.05555555555555555 0.05555555555555555 0.05555555555555555 0.05555555555555555 0.05555555555555555 0.05555555555555555 0.05555555555555555 0.05555555555555555 0.05555555555555555 0.05555555555555555 0.05555555555555555 0.05555555555555555 0.05555555555555555 0.05555555555555555 0.05555555555555555 0.07074158440901038 0.0821311060491015 0.05024044545684637 0.08440901037711972 0.06162996709693749 0.07529739306504682 0.0730194887370286 0.09352062768919261 0.0821311060491015 0.07985320172108328 0.09579853201721084 0.07529739306504682 0.06846368008099216 0.0001265502404454568 0.00240445456846368 0.0001265502404454568 0.004682358896481903 0.0001265502404454568 0.07084670877774325 0.08296227261744503 0.0755065410237824 0.06742949846398122 0.08358358358358357 0.08016637326982154 0.07612785198992095 0.08109833971902937 0.07177867522695108 0.07643850747299022 0.07737047392219805 0.08389423906665286 0.07115736426081253 1.725863794829312e-05 0.0003279141210175693 0.0006385696040868454 0.0006385696040868454 1.725863794829312e-05 0.0796783625730994 0.0402046783625731 0.0402046783625731 0.0533625730994152 0.0796783625730994 0.0402046783625731 0.1059941520467836 0.0665204678362573 0.0665204678362573 0.1059941520467836 0.09283625730994151 0.1191520467836257 0.1059941520467836 0.0007309941520467836 0.0007309941520467836 0.0007309941520467836 0.0007309941520467836 0.0007309941520467836 0.006944444444444444 0.1319444444444444 0.006944444444444444 0.1319444444444444 0.006944444444444444 0.1319444444444444 0.1319444444444444 0.1319444444444444 0.006944444444444444 0.1319444444444444 0.006944444444444444 0.1319444444444444 0.006944444444444444 0.006944444444444444 0.006944444444444444 0.006944444444444444 0.006944444444444444 0.006944444444444444 0.01851851851851852 0.01851851851851852 0.01851851851851852 0.01851851851851852 0.01851851851851852 0.01851851851851852 0.01851851851851852 0.01851851851851852 0.01851851851851852 0.01851851851851852 0.3518518518518519 0.01851851851851852 0.01851851851851852 0.01851851851851852 0.3518518518518519 0.01851851851851852 0.01851851851851852 0.01851851851851852 0.02777777777777778 0.02777777777777778 0.02777777777777778 0.02777777777777778 0.02777777777777778 0.02777777777777778 0.02777777777777778 0.02777777777777778 0.02777777777777778 0.02777777777777778 0.02777777777777778 0.5277777777777778 0.02777777777777778 0.02777777777777778 0.02777777777777778 0.02777777777777778 0.02777777777777778 0.02777777777777778 0.08028598218471636 0.09294421003281762 0.08028598218471636 0.08028598218471636 0.08239568682606657 0.04653070792311299 0.07606657290201593 0.07817627754336615 0.05707923112986404 0.07395686826066572 0.08450539146741678 0.08450539146741678 0.07606657290201593 0.002226910454758556 0.000117205813408345 0.002226910454758556 0.002226910454758556 0.000117205813408345 0.07714073211744922 0.06986482990557495 0.08383456215237356 0.07684969602897425 0.08034212909067391 0.08150627344457378 0.07714073211744922 0.08092420126762384 0.07830487647134911 0.0733572629672746 0.079469020825249 0.06549928857845039 0.07568555167507438 1.616867158194283e-05 1.616867158194283e-05 1.616867158194283e-05 1.616867158194283e-05 1.616867158194283e-05 0.1032763532763533 0.07763532763532763 0.05199430199430199 0.09045584045584044 0.05199430199430199 0.07763532763532763 0.06481481481481481 0.01353276353276353 0.07763532763532763 0.07763532763532763 0.1289173789173789 0.03917378917378917 0.1289173789173789 0.0007122507122507122 0.0007122507122507122 0.0007122507122507122 0.01353276353276353 0.0007122507122507122 0.05555555555555555 0.05555555555555555 0.05555555555555555 0.05555555555555555 0.05555555555555555 0.05555555555555555 0.05555555555555555 0.05555555555555555 0.05555555555555555 0.05555555555555555 0.05555555555555555 0.05555555555555555 0.05555555555555555 0.05555555555555555 0.05555555555555555 0.05555555555555555 0.05555555555555555 0.05555555555555555 0.05555555555555555 0.05555555555555555 0.05555555555555555 0.05555555555555555 0.05555555555555555 0.05555555555555555 0.05555555555555555 0.05555555555555555 0.05555555555555555 0.05555555555555555 0.05555555555555555 0.05555555555555555 0.05555555555555555 0.05555555555555555 0.05555555555555555 0.05555555555555555 0.05555555555555555 0.05555555555555555 0.05555555555555555 0.05555555555555555 0.05555555555555555 0.05555555555555555 0.05555555555555555 0.05555555555555555 0.05555555555555555 0.05555555555555555 0.05555555555555555 0.05555555555555555 0.05555555555555555 0.05555555555555555 0.05555555555555555 0.05555555555555555 0.05555555555555555 0.05555555555555555 0.05555555555555555 0.05555555555555555 0.05555555555555555 0.05555555555555555 0.05555555555555555 0.05555555555555555 0.05555555555555555 0.05555555555555555 0.05555555555555555 0.05555555555555555 0.05555555555555555 0.05555555555555555 0.05555555555555555 0.05555555555555555 0.05555555555555555 0.05555555555555555 0.05555555555555555 0.05555555555555555 0.05555555555555555 0.05555555555555555 0.05555555555555555 0.05555555555555555 0.05555555555555555 0.05555555555555555 0.05555555555555555 0.05555555555555555 0.05555555555555555 0.05555555555555555 0.05555555555555555 0.05555555555555555 0.05555555555555555 0.05555555555555555 0.05555555555555555 0.05555555555555555 0.05555555555555555 0.05555555555555555 0.05555555555555555 0.05555555555555555 0.01388888888888889 0.01388888888888889 0.01388888888888889 0.01388888888888889 0.2638888888888889 0.01388888888888889 0.2638888888888889 0.01388888888888889 0.01388888888888889 0.01388888888888889 0.01388888888888889 0.2638888888888889 0.01388888888888889 0.01388888888888889 0.01388888888888889 0.01388888888888889 0.01388888888888889 0.01388888888888889 0.05709876543209876 0.08487654320987653 0.05709876543209876 0.05709876543209876 0.05709876543209876 0.08487654320987653 0.05709876543209876 0.02932098765432099 0.08487654320987653 0.02932098765432099 0.1126543209876543 0.1682098765432099 0.1126543209876543 0.00154320987654321 0.00154320987654321 0.00154320987654321 0.00154320987654321 0.00154320987654321 0.00617283950617284 0.00617283950617284 0.2283950617283951 0.2283950617283951 0.00617283950617284 0.117283950617284 0.117283950617284 0.117283950617284 0.00617283950617284 0.117283950617284 0.00617283950617284 0.00617283950617284 0.00617283950617284 0.00617283950617284 0.00617283950617284 0.00617283950617284 0.00617283950617284 0.00617283950617284 0.07037037037037039 0.137037037037037 0.003703703703703704 0.003703703703703704 0.07037037037037039 0.2037037037037037 0.003703703703703704 0.07037037037037039 0.07037037037037039 0.07037037037037039 0.003703703703703704 0.07037037037037039 0.2037037037037037 0.003703703703703704 0.003703703703703704 0.003703703703703704 0.003703703703703704 0.003703703703703704 0.07867063492063492 0.06438492063492064 0.1090277777777778 0.06259920634920635 0.08938492063492064 0.08402777777777778 0.07331349206349207 0.08045634920634921 0.07331349206349207 0.08224206349206349 0.06617063492063492 0.0679563492063492 0.06259920634920635 0.001884920634920635 9.920634920634919e-05 0.001884920634920635 9.920634920634919e-05 0.001884920634920635 0.05993511759935118 0.08767234387672343 0.08913219789132197 0.07453365774533657 0.05847526358475263 0.08037307380373074 0.06139497161394972 0.08329278183292782 0.1022708840227088 0.06577453365774534 0.08913219789132197 0.06723438767234388 0.0789132197891322 8.110300081102999e-05 8.110300081102999e-05 8.110300081102999e-05 8.110300081102999e-05 0.00154095701540957 0.1053067993366501 0.09038142620232172 0.0008291873963515754 0.03067993366500829 0.1053067993366501 0.1053067993366501 0.060530679933665 0.1053067993366501 0.07545605306799336 0.07545605306799336 0.060530679933665 0.09038142620232172 0.09038142620232172 0.0008291873963515754 0.0008291873963515754 0.0008291873963515754 0.0008291873963515754 0.0008291873963515754 0.1018518518518518 0.1018518518518518 0.1018518518518518 0.03518518518518519 0.1018518518518518 0.001851851851851852 0.1351851851851852 0.03518518518518519 0.03518518518518519 0.03518518518518519 0.1018518518518518 0.1018518518518518 0.03518518518518519 0.001851851851851852 0.001851851851851852 0.001851851851851852 0.03518518518518519 0.03518518518518519 0.09595959595959597 0.09595959595959597 0.09595959595959597 0.09595959595959597 0.00505050505050505 0.1868686868686869 0.00505050505050505 0.09595959595959597 0.00505050505050505 0.00505050505050505 0.00505050505050505 0.09595959595959597 0.1868686868686869 0.00505050505050505 0.00505050505050505 0.00505050505050505 0.00505050505050505 0.00505050505050505 0.2111111111111112 0.4111111111111111 0.01111111111111111 0.01111111111111111 0.01111111111111111 0.01111111111111111 0.01111111111111111 0.01111111111111111 0.01111111111111111 0.2111111111111112 0.01111111111111111 0.01111111111111111 0.01111111111111111 0.01111111111111111 0.01111111111111111 0.01111111111111111 0.01111111111111111 0.01111111111111111 0.07035243475921443 0.07761635727737423 0.05582458972289481 0.09456550981974711 0.0727737422652677 0.07035243475921443 0.09214420231369384 0.08972289480764058 0.07035243475921443 0.05098197471078827 0.08730158730158731 0.07035243475921443 0.09214420231369384 0.000134517083669626 0.000134517083669626 0.000134517083669626 0.002555824589722895 0.002555824589722895 0.075827721661055 0.0897166105499439 0.07330246913580248 0.07835297418630753 0.07203984287317622 0.06193883277216611 0.07077721661054995 0.07456509539842875 0.07961560044893379 0.08087822671156006 0.08214085297418632 0.06951459034792369 0.09097923681257016 7.014590347923682e-05 7.014590347923682e-05 7.014590347923682e-05 7.014590347923682e-05 7.014590347923682e-05 0.07545605306799336 0.09038142620232172 0.09038142620232172 0.07545605306799336 0.1202321724709784 0.1202321724709784 0.03067993366500829 0.01575456053067993 0.060530679933665 0.1351575456053068 0.07545605306799336 0.07545605306799336 0.03067993366500829 0.0008291873963515754 0.0008291873963515754 0.0008291873963515754 0.0008291873963515754 0.0008291873963515754 0.05555555555555555 0.05555555555555555 0.05555555555555555 0.05555555555555555 0.05555555555555555 0.05555555555555555 0.05555555555555555 0.05555555555555555 0.05555555555555555 0.05555555555555555 0.05555555555555555 0.05555555555555555 0.05555555555555555 0.05555555555555555 0.05555555555555555 0.05555555555555555 0.05555555555555555 0.05555555555555555 0.05555555555555555 0.05555555555555555 0.05555555555555555 0.05555555555555555 0.05555555555555555 0.05555555555555555 0.05555555555555555 0.05555555555555555 0.05555555555555555 0.05555555555555555 0.05555555555555555 0.05555555555555555 0.05555555555555555 0.05555555555555555 0.05555555555555555 0.05555555555555555 0.05555555555555555 0.05555555555555555 0.05555555555555555 0.05555555555555555 0.05555555555555555 0.05555555555555555 0.05555555555555555 0.05555555555555555 0.05555555555555555 0.05555555555555555 0.05555555555555555 0.05555555555555555 0.05555555555555555 0.05555555555555555 0.05555555555555555 0.05555555555555555 0.05555555555555555 0.05555555555555555 0.05555555555555555 0.05555555555555555 0.05555555555555555 0.05555555555555555 0.05555555555555555 0.05555555555555555 0.05555555555555555 0.05555555555555555 0.05555555555555555 0.05555555555555555 0.05555555555555555 0.05555555555555555 0.05555555555555555 0.05555555555555555 0.05555555555555555 0.05555555555555555 0.05555555555555555 0.05555555555555555 0.05555555555555555 0.05555555555555555 0.05555555555555555 0.05555555555555555 0.05555555555555555 0.05555555555555555 0.05555555555555555 0.05555555555555555 0.05555555555555555 0.05555555555555555 0.05555555555555555 0.05555555555555555 0.05555555555555555 0.05555555555555555 0.05555555555555555 0.05555555555555555 0.05555555555555555 0.05555555555555555 0.05555555555555555 0.05555555555555555 0.05555555555555555 0.05555555555555555 0.05555555555555555 0.05555555555555555 0.05555555555555555 0.05555555555555555 0.05555555555555555 0.05555555555555555 0.05555555555555555 0.05555555555555555 0.05555555555555555 0.05555555555555555 0.05555555555555555 0.05555555555555555 0.05555555555555555 0.05555555555555555 0.05555555555555555 0.05555555555555555 0.1148148148148148 0.05767195767195767 0.0671957671957672 0.0671957671957672 0.0671957671957672 0.05767195767195767 0.07671957671957673 0.0671957671957672 0.07671957671957673 0.08624338624338625 0.1148148148148148 0.0671957671957672 0.07671957671957673 0.0005291005291005291 0.0005291005291005291 0.0005291005291005291 0.0005291005291005291 0.0005291005291005291 0.107565011820331 0.08628841607565012 0.08628841607565012 0.06501182033096926 0.06501182033096926 0.04373522458628841 0.08628841607565012 0.08628841607565012 0.06501182033096926 0.02245862884160757 0.1501182033096927 0.08628841607565012 0.04373522458628841 0.001182033096926714 0.001182033096926714 0.001182033096926714 0.001182033096926714 0.001182033096926714 0.06630824372759855 0.001792114695340502 0.06630824372759855 0.03405017921146954 0.06630824372759855 0.03405017921146954 0.1953405017921147 0.1308243727598566 0.06630824372759855 0.1308243727598566 0.06630824372759855 0.03405017921146954 0.09856630824372759 0.001792114695340502 0.001792114695340502 0.001792114695340502 0.001792114695340502 0.001792114695340502 0.06983781166787703 0.07637375938029534 0.08073105785524087 0.07419511014282257 0.06983781166787703 0.06330186395545874 0.07637375938029534 0.06983781166787703 0.0720164609053498 0.08073105785524087 0.08073105785524087 0.08508835633018641 0.09816025175502301 0.0001210360687484871 0.0001210360687484871 0.002299685306221254 0.0001210360687484871 0.0001210360687484871 0.09974009096816115 0.06465237166991553 0.04710851202079272 0.09974009096816115 0.06465237166991553 0.08219623131903833 0.07634827810266406 0.05880441845354126 0.03541260558804418 0.07634827810266406 0.09389213775178688 0.09974009096816115 0.09974009096816115 0.0003248862897985705 0.0003248862897985705 0.0003248862897985705 0.0003248862897985705 0.0003248862897985705 0.09362139917695472 0.09362139917695472 0.07510288065843621 0.09362139917695472 0.09362139917695472 0.03806584362139917 0.1676954732510288 0.05658436213991769 0.05658436213991769 0.03806584362139917 0.03806584362139917 0.1121399176954732 0.03806584362139917 0.00102880658436214 0.00102880658436214 0.00102880658436214 0.00102880658436214 0.00102880658436214 0.07834757834757834 0.02706552706552707 0.001424501424501424 0.07834757834757834 0.1552706552706553 0.02706552706552707 0.02706552706552707 0.02706552706552707 0.1809116809116809 0.1809116809116809 0.0527065527065527 0.07834757834757834 0.07834757834757834 0.001424501424501424 0.001424501424501424 0.001424501424501424 0.001424501424501424 0.001424501424501424 0.06597222222222224 0.1284722222222222 0.06597222222222224 0.06597222222222224 0.06597222222222224 0.003472222222222223 0.003472222222222223 0.1909722222222223 0.06597222222222224 0.06597222222222224 0.06597222222222224 0.06597222222222224 0.1284722222222222 0.003472222222222223 0.003472222222222223 0.003472222222222223 0.003472222222222223 0.003472222222222223 0.00505050505050505 0.09595959595959597 0.09595959595959597 0.00505050505050505 0.09595959595959597 0.09595959595959597 0.09595959595959597 0.00505050505050505 0.09595959595959597 0.00505050505050505 0.00505050505050505 0.2777777777777778 0.09595959595959597 0.00505050505050505 0.00505050505050505 0.00505050505050505 0.00505050505050505 0.00505050505050505 0.08074074074074074 0.09407407407407407 0.1207407407407407 0.02740740740740741 0.05407407407407407 0.08074074074074074 0.08074074074074074 0.1340740740740741 0.1207407407407407 0.02740740740740741 0.05407407407407407 0.02740740740740741 0.08074074074074074 0.0007407407407407407 0.0007407407407407407 0.0007407407407407407 0.01407407407407408 0.0007407407407407407 0.07242063492063491 0.05456349206349206 0.1438492063492063 0.01884920634920635 0.1259920634920635 0.1081349206349206 0.1617063492063492 0.01884920634920635 0.01884920634920635 0.0367063492063492 0.1081349206349206 0.0367063492063492 0.09027777777777776 0.000992063492063492 0.000992063492063492 0.000992063492063492 0.000992063492063492 0.000992063492063492 0.005555555555555556 0.005555555555555556 0.005555555555555556 0.005555555555555556 0.1055555555555556 0.1055555555555556 0.2055555555555555 0.005555555555555556 0.1055555555555556 0.1055555555555556 0.2055555555555555 0.005555555555555556 0.1055555555555556 0.005555555555555556 0.005555555555555556 0.005555555555555556 0.005555555555555556 0.005555555555555556 0.05555555555555555 0.05555555555555555 0.05555555555555555 0.05555555555555555 0.05555555555555555 0.05555555555555555 0.05555555555555555 0.05555555555555555 0.05555555555555555 0.05555555555555555 0.05555555555555555 0.05555555555555555 0.05555555555555555 0.05555555555555555 0.05555555555555555 0.05555555555555555 0.05555555555555555 0.05555555555555555 0.05555555555555555 0.05555555555555555 0.05555555555555555 0.05555555555555555 0.05555555555555555 0.05555555555555555 0.05555555555555555 0.05555555555555555 0.05555555555555555 0.05555555555555555 0.05555555555555555 0.05555555555555555 0.05555555555555555 0.05555555555555555 0.05555555555555555 0.05555555555555555 0.05555555555555555 0.05555555555555555 0.05555555555555555 0.05555555555555555 0.05555555555555555 0.05555555555555555 0.05555555555555555 0.05555555555555555 0.05555555555555555 0.05555555555555555 0.05555555555555555 0.05555555555555555 0.05555555555555555 0.05555555555555555 0.05555555555555555 0.05555555555555555 0.05555555555555555 0.05555555555555555 0.05555555555555555 0.05555555555555555 0.05555555555555555 0.05555555555555555 0.05555555555555555 0.05555555555555555 0.05555555555555555 0.05555555555555555 0.05555555555555555 0.05555555555555555 0.05555555555555555 0.05555555555555555 0.05555555555555555 0.05555555555555555 0.05555555555555555 0.05555555555555555 0.05555555555555555 0.05555555555555555 0.05555555555555555 0.05555555555555555 0.05555555555555555 0.05555555555555555 0.05555555555555555 0.05555555555555555 0.05555555555555555 0.05555555555555555 0.05555555555555555 0.05555555555555555 0.05555555555555555 0.05555555555555555 0.05555555555555555 0.05555555555555555 0.05555555555555555 0.05555555555555555 0.05555555555555555 0.05555555555555555 0.05555555555555555 0.05555555555555555 0.05555555555555555 0.05555555555555555 0.05555555555555555 0.05555555555555555 0.05555555555555555 0.05555555555555555 0.05555555555555555 0.05555555555555555 0.05555555555555555 0.05555555555555555 0.05555555555555555 0.05555555555555555 0.05555555555555555 0.05555555555555555 0.05555555555555555 0.05555555555555555 0.05555555555555555 0.05555555555555555 0.05793650793650793 0.07222222222222222 0.1150793650793651 0.01507936507936508 0.07222222222222222 0.08650793650793651 0.07222222222222222 0.02936507936507936 0.1007936507936508 0.1007936507936508 0.08650793650793651 0.05793650793650793 0.07222222222222222 0.0007936507936507935 0.01507936507936508 0.0007936507936507935 0.02936507936507936 0.01507936507936508 0.03518518518518519 0.06851851851851851 0.1351851851851852 0.001851851851851852 0.06851851851851851 0.001851851851851852 0.001851851851851852 0.2018518518518518 0.1351851851851852 0.03518518518518519 0.1351851851851852 0.06851851851851851 0.06851851851851851 0.001851851851851852 0.001851851851851852 0.03518518518518519 0.001851851851851852 0.001851851851851852 0.1444444444444444 0.1158730158730159 0.03015873015873016 0.1444444444444444 0.0873015873015873 0.05873015873015872 0.1158730158730159 0.03015873015873016 0.05873015873015872 0.05873015873015872 0.05873015873015872 0.001587301587301587 0.0873015873015873 0.001587301587301587 0.001587301587301587 0.001587301587301587 0.001587301587301587 0.001587301587301587 0.06688453159041395 0.1178649237472767 0.1061002178649238 0.05904139433551198 0.07864923747276689 0.07080610021786493 0.055119825708061 0.08257080610021787 0.05119825708061002 0.08649237472766885 0.05119825708061002 0.08257080610021787 0.08649237472766885 0.0002178649237472767 0.0002178649237472767 0.0002178649237472767 0.004139433551198257 0.0002178649237472767 0.07393790849673204 0.1254084967320262 0.1033496732026144 0.05187908496732027 0.03717320261437909 0.1033496732026144 0.09599673202614381 0.02246732026143791 0.06658496732026145 0.08129084967320263 0.110702614379085 0.05187908496732027 0.07393790849673204 0.0004084967320261439 0.0004084967320261439 0.0004084967320261439 0.0004084967320261439 0.0004084967320261439 0.1091269841269841 0.0734126984126984 0.001984126984126984 0.1091269841269841 0.0734126984126984 0.2162698412698413 0.0376984126984127 0.1448412698412698 0.0734126984126984 0.0376984126984127 0.0734126984126984 0.0376984126984127 0.001984126984126984 0.001984126984126984 0.001984126984126984 0.001984126984126984 0.001984126984126984 0.001984126984126984 0.03909465020576131 0.07613168724279834 0.00205761316872428 0.1872427983539094 0.03909465020576131 0.1872427983539094 0.07613168724279834 0.07613168724279834 0.1131687242798354 0.1502057613168724 0.00205761316872428 0.00205761316872428 0.03909465020576131 0.00205761316872428 0.00205761316872428 0.00205761316872428 0.00205761316872428 0.00205761316872428 0.09595959595959597 0.09595959595959597 0.00505050505050505 0.1868686868686869 0.09595959595959597 0.00505050505050505 0.09595959595959597 0.09595959595959597 0.09595959595959597 0.00505050505050505 0.09595959595959597 0.00505050505050505 0.09595959595959597 0.00505050505050505 0.00505050505050505 0.00505050505050505 0.00505050505050505 0.00505050505050505 0.01388888888888889 0.01388888888888889 0.01388888888888889 0.263888888888889 0.01388888888888889 0.01388888888888889 0.01388888888888889 0.263888888888889 0.01388888888888889 0.263888888888889 0.01388888888888889 0.01388888888888889 0.01388888888888889 0.01388888888888889 0.01388888888888889 0.01388888888888889 0.01388888888888889 0.01388888888888889 0.09217171717171717 0.09217171717171717 0.1148989898989899 0.1148989898989899 0.04671717171717171 0.09217171717171717 0.02398989898989899 0.09217171717171717 0.04671717171717171 0.09217171717171717 0.04671717171717171 0.001262626262626263 0.1148989898989899 0.02398989898989899 0.001262626262626263 0.001262626262626263 0.001262626262626263 0.001262626262626263 0.1141975308641975 0.05864197530864197 0.1697530864197531 0.05864197530864197 0.05864197530864197 0.1141975308641975 0.00308641975308642 0.00308641975308642 0.1697530864197531 0.05864197530864197 0.05864197530864197 0.05864197530864197 0.05864197530864197 0.00308641975308642 0.00308641975308642 0.00308641975308642 0.00308641975308642 0.00308641975308642 0.009259259259259259 0.009259259259259259 0.1759259259259259 0.009259259259259259 0.1759259259259259 0.009259259259259259 0.009259259259259259 0.009259259259259259 0.009259259259259259 0.009259259259259259 0.1759259259259259 0.1759259259259259 0.009259259259259259 0.009259259259259259 0.009259259259259259 0.1759259259259259 0.009259259259259259 0.009259259259259259 0.05555555555555555 0.05555555555555555 0.05555555555555555 0.05555555555555555 0.05555555555555555 0.05555555555555555 0.05555555555555555 0.05555555555555555 0.05555555555555555 0.05555555555555555 0.05555555555555555 0.05555555555555555 0.05555555555555555 0.05555555555555555 0.05555555555555555 0.05555555555555555 0.05555555555555555 0.05555555555555555 0.05555555555555555 0.05555555555555555 0.05555555555555555 0.05555555555555555 0.05555555555555555 0.05555555555555555 0.05555555555555555 0.05555555555555555 0.05555555555555555 0.05555555555555555 0.05555555555555555 0.05555555555555555 0.05555555555555555 0.05555555555555555 0.05555555555555555 0.05555555555555555 0.05555555555555555 0.05555555555555555 0.05555555555555555 0.05555555555555555 0.05555555555555555 0.05555555555555555 0.05555555555555555 0.05555555555555555 0.05555555555555555 0.05555555555555555 0.05555555555555555 0.05555555555555555 0.05555555555555555 0.05555555555555555 0.05555555555555555 0.05555555555555555 0.05555555555555555 0.05555555555555555 0.05555555555555555 0.05555555555555555 0.05555555555555555 0.05555555555555555 0.05555555555555555 0.05555555555555555 0.05555555555555555 0.05555555555555555 0.05555555555555555 0.05555555555555555 0.05555555555555555 0.05555555555555555 0.05555555555555555 0.05555555555555555 0.05555555555555555 0.05555555555555555 0.05555555555555555 0.05555555555555555 0.05555555555555555 0.05555555555555555 0.05555555555555555 0.05555555555555555 0.05555555555555555 0.05555555555555555 0.05555555555555555 0.05555555555555555 0.05555555555555555 0.05555555555555555 0.05555555555555555 0.05555555555555555 0.05555555555555555 0.05555555555555555 0.05555555555555555 0.05555555555555555 0.05555555555555555 0.05555555555555555 0.05555555555555555 0.05555555555555555 0.05555555555555555 0.05555555555555555 0.05555555555555555 0.05555555555555555 0.05555555555555555 0.05555555555555555 0.05555555555555555 0.05555555555555555 0.05555555555555555 0.05555555555555555 0.05555555555555555 0.05555555555555555 0.05555555555555555 0.05555555555555555 0.05555555555555555 0.05555555555555555 0.05555555555555555 0.05555555555555555 0.1289173789173789 0.03917378917378917 0.1032763532763533 0.07763532763532763 0.03917378917378917 0.1417378917378917 0.03917378917378917 0.05199430199430199 0.03917378917378917 0.07763532763532763 0.09045584045584044 0.1289173789173789 0.03917378917378917 0.0007122507122507122 0.0007122507122507122 0.0007122507122507122 0.0007122507122507122 0.0007122507122507122 0.07905982905982906 0.0405982905982906 0.002136752136752137 0.07905982905982906 0.155982905982906 0.0405982905982906 0.0405982905982906 0.07905982905982906 0.1175213675213675 0.1175213675213675 0.0405982905982906 0.0405982905982906 0.07905982905982906 0.0405982905982906 0.0405982905982906 0.002136752136752137 0.002136752136752137 0.002136752136752137 0.05138888888888889 0.1013888888888889 0.02638888888888889 0.0763888888888889 0.0763888888888889 0.02638888888888889 0.05138888888888889 0.05138888888888889 0.1263888888888889 0.2263888888888889 0.05138888888888889 0.0763888888888889 0.05138888888888889 0.001388888888888889 0.001388888888888889 0.001388888888888889 0.001388888888888889 0.001388888888888889 0.08545092177379174 0.0630293971101146 0.07199800697558546 0.08096661684105631 0.04957648231190832 0.1078724464374689 0.04957648231190832 0.09441953163926259 0.1078724464374689 0.06751370204285002 0.06751370204285002 0.08096661684105631 0.07199800697558546 0.0002491280518186348 0.0002491280518186348 0.0002491280518186348 0.0002491280518186348 0.0002491280518186348 0.08743961352657005 0.09613526570048309 0.06135265700483092 0.07004830917874397 0.078743961352657 0.09613526570048309 0.06135265700483092 0.1135265700483092 0.04396135265700483 0.06135265700483092 0.06135265700483092 0.08743961352657005 0.078743961352657 0.0004830917874396135 0.0004830917874396135 0.0004830917874396135 0.0004830917874396135 0.0004830917874396135 0.08222222222222221 0.04222222222222222 0.08222222222222221 0.04222222222222222 0.1222222222222222 0.08222222222222221 0.04222222222222222 0.08222222222222221 0.1622222222222222 0.1222222222222222 0.04222222222222222 0.08222222222222221 0.002222222222222222 0.002222222222222222 0.002222222222222222 0.002222222222222222 0.002222222222222222 0.002222222222222222 0.1448412698412698 0.1091269841269841 0.1805555555555555 0.001984126984126984 0.1448412698412698 0.1091269841269841 0.0376984126984127 0.0376984126984127 0.0376984126984127 0.001984126984126984 0.0376984126984127 0.0376984126984127 0.0734126984126984 0.001984126984126984 0.001984126984126984 0.0376984126984127 0.001984126984126984 0.001984126984126984 0.007936507936507938 0.1507936507936508 0.007936507936507938 0.007936507936507938 0.007936507936507938 0.1507936507936508 0.1507936507936508 0.007936507936507938 0.2936507936507937 0.007936507936507938 0.007936507936507938 0.1507936507936508 0.007936507936507938 0.007936507936507938 0.007936507936507938 0.007936507936507938 0.007936507936507938 0.007936507936507938 0.006944444444444444 0.006944444444444444 0.006944444444444444 0.1319444444444444 0.006944444444444444 0.1319444444444444 0.1319444444444444 0.006944444444444444 0.006944444444444444 0.006944444444444444 0.006944444444444444 0.2569444444444444 0.2569444444444444 0.006944444444444444 0.006944444444444444 0.006944444444444444 0.006944444444444444 0.006944444444444444 0.00396825396825397 0.1468253968253969 0.1468253968253969 0.2182539682539683 0.00396825396825397 0.07539682539682542 0.00396825396825397 0.07539682539682542 0.2182539682539683 0.00396825396825397 0.00396825396825397 0.00396825396825397 0.07539682539682542 0.00396825396825397 0.00396825396825397 0.00396825396825397 0.00396825396825397 0.00396825396825397 0.00308641975308642 0.00308641975308642 0.05864197530864197 0.05864197530864197 0.05864197530864197 0.05864197530864197 0.1141975308641975 0.1141975308641975 0.00308641975308642 0.05864197530864197 0.05864197530864197 0.2253086419753086 0.1697530864197531 0.00308641975308642 0.00308641975308642 0.00308641975308642 0.00308641975308642 0.00308641975308642 0.02777777777777778 0.02777777777777778 0.02777777777777778 0.02777777777777778 0.02777777777777778 0.02777777777777778 0.5277777777777778 0.02777777777777778 0.02777777777777778 0.02777777777777778 0.02777777777777778 0.02777777777777778 0.02777777777777778 0.02777777777777778 0.02777777777777778 0.02777777777777778 0.02777777777777778 0.02777777777777778 0.05555555555555555 0.05555555555555555 0.05555555555555555 0.05555555555555555 0.05555555555555555 0.05555555555555555 0.05555555555555555 0.05555555555555555 0.05555555555555555 0.05555555555555555 0.05555555555555555 0.05555555555555555 0.05555555555555555 0.05555555555555555 0.05555555555555555 0.05555555555555555 0.05555555555555555 0.05555555555555555 0.05555555555555555 0.05555555555555555 0.05555555555555555 0.05555555555555555 0.05555555555555555 0.05555555555555555 0.05555555555555555 0.05555555555555555 0.05555555555555555 0.05555555555555555 0.05555555555555555 0.05555555555555555 0.05555555555555555 0.05555555555555555 0.05555555555555555 0.05555555555555555 0.05555555555555555 0.05555555555555555 0.05555555555555555 0.05555555555555555 0.05555555555555555 0.05555555555555555 0.05555555555555555 0.05555555555555555 0.05555555555555555 0.05555555555555555 0.05555555555555555 0.05555555555555555 0.05555555555555555 0.05555555555555555 0.05555555555555555 0.05555555555555555 0.05555555555555555 0.05555555555555555 0.05555555555555555 0.05555555555555555 0.05555555555555555 0.05555555555555555 0.05555555555555555 0.05555555555555555 0.05555555555555555 0.05555555555555555 0.05555555555555555 0.05555555555555555 0.05555555555555555 0.05555555555555555 0.05555555555555555 0.05555555555555555 0.05555555555555555 0.05555555555555555 0.05555555555555555 0.05555555555555555 0.05555555555555555 0.05555555555555555 0.05555555555555555 0.05555555555555555 0.05555555555555555 0.05555555555555555 0.05555555555555555 0.05555555555555555 0.05555555555555555 0.05555555555555555 0.05555555555555555 0.05555555555555555 0.05555555555555555 0.05555555555555555 0.05555555555555555 0.05555555555555555 0.05555555555555555 0.05555555555555555 0.05555555555555555 0.05555555555555555 0.05555555555555555 0.05555555555555555 0.05555555555555555 0.05555555555555555 0.05555555555555555 0.05555555555555555 0.05555555555555555 0.05555555555555555 0.05555555555555555 0.05555555555555555 0.05555555555555555 0.05555555555555555 0.05555555555555555 0.05555555555555555 0.05555555555555555 0.05555555555555555 0.05555555555555555 0.05555555555555555 0.09611992945326278 0.03262786596119929 0.01675485008818342 0.08024691358024691 0.09611992945326278 0.03262786596119929 0.1596119929453263 0.08024691358024691 0.08024691358024691 0.06437389770723104 0.09611992945326278 0.06437389770723104 0.08024691358024691 0.0008818342151675485 0.0008818342151675485 0.0008818342151675485 0.01675485008818342 0.0008818342151675485 0.05873015873015872 0.03015873015873016 0.03015873015873016 0.001587301587301587 0.1444444444444444 0.173015873015873 0.03015873015873016 0.0873015873015873 0.05873015873015872 0.05873015873015872 0.1158730158730159 0.2015873015873016 0.001587301587301587 0.001587301587301587 0.001587301587301587 0.001587301587301587 0.001587301587301587 0.001587301587301587 0.0642361111111111 0.001736111111111111 0.0642361111111111 0.0954861111111111 0.03298611111111111 0.03298611111111111 0.0642361111111111 0.0954861111111111 0.0954861111111111 0.0642361111111111 0.1579861111111111 0.0642361111111111 0.1579861111111111 0.001736111111111111 0.001736111111111111 0.001736111111111111 0.001736111111111111 0.001736111111111111 0.05967078189300411 0.08189300411522633 0.08930041152263375 0.05226337448559671 0.05967078189300411 0.07448559670781893 0.1041152263374486 0.06707818930041153 0.1263374485596708 0.01522633744855967 0.09670781893004116 0.1041152263374486 0.05967078189300411 0.000411522633744856 0.007818930041152264 0.000411522633744856 0.000411522633744856 0.000411522633744856 0.03637566137566137 0.03637566137566137 0.1316137566137566 0.1078042328042328 0.08399470899470898 0.1078042328042328 0.07208994708994708 0.1316137566137566 0.07208994708994708 0.04828042328042328 0.07208994708994708 0.04828042328042328 0.04828042328042328 0.0006613756613756613 0.0006613756613756613 0.0006613756613756613 0.0006613756613756613 0.0006613756613756613 0.07834757834757834 0.103988603988604 0.1552706552706553 0.0527065527065527 0.02706552706552707 0.103988603988604 0.07834757834757834 0.0527065527065527 0.001424501424501424 0.0527065527065527 0.0527065527065527 0.07834757834757834 0.1296296296296296 0.001424501424501424 0.001424501424501424 0.001424501424501424 0.02706552706552707 0.001424501424501424 0.1404320987654321 0.05709876543209876 0.08487654320987653 0.1404320987654321 0.08487654320987653 0.02932098765432099 0.1126543209876543 0.02932098765432099 0.02932098765432099 0.02932098765432099 0.08487654320987653 0.05709876543209876 0.08487654320987653 0.00154320987654321 0.00154320987654321 0.00154320987654321 0.02932098765432099 0.00154320987654321 0.2182539682539683 0.003968253968253969 0.003968253968253969 0.003968253968253969 0.003968253968253969 0.2896825396825397 0.07539682539682541 0.003968253968253969 0.003968253968253969 0.2182539682539683 0.07539682539682541 0.003968253968253969 0.07539682539682541 0.003968253968253969 0.003968253968253969 0.003968253968253969 0.003968253968253969 0.003968253968253969 0.00617283950617284 0.2283950617283951 0.117283950617284 0.117283950617284 0.00617283950617284 0.00617283950617284 0.00617283950617284 0.4506172839506173 0.00617283950617284 0.00617283950617284 0.00617283950617284 0.00617283950617284 0.00617283950617284 0.00617283950617284 0.00617283950617284 0.00617283950617284 0.00617283950617284 0.00617283950617284 0.002923976608187134 0.05555555555555555 0.002923976608187134 0.2660818713450292 0.05555555555555555 0.108187134502924 0.05555555555555555 0.05555555555555555 0.108187134502924 0.002923976608187134 0.1608187134502924 0.002923976608187134 0.05555555555555555 0.05555555555555555 0.002923976608187134 0.002923976608187134 0.002923976608187134 0.002923976608187134 0.06209150326797386 0.00326797385620915 0.00326797385620915 0.1209150326797385 0.1797385620915032 0.00326797385620915 0.1209150326797385 0.1209150326797385 0.06209150326797386 0.00326797385620915 0.06209150326797386 0.06209150326797386 0.1797385620915032 0.00326797385620915 0.00326797385620915 0.00326797385620915 0.00326797385620915 0.00326797385620915 0.2283950617283951 0.00617283950617284 0.117283950617284 0.00617283950617284 0.00617283950617284 0.2283950617283951 0.00617283950617284 0.117283950617284 0.00617283950617284 0.117283950617284 0.00617283950617284 0.117283950617284 0.00617283950617284 0.00617283950617284 0.00617283950617284 0.00617283950617284 0.00617283950617284 0.00617283950617284 0.05555555555555555 0.05555555555555555 0.05555555555555555 0.05555555555555555 0.05555555555555555 0.05555555555555555 0.05555555555555555 0.05555555555555555 0.05555555555555555 0.05555555555555555 0.05555555555555555 0.05555555555555555 0.05555555555555555 0.05555555555555555 0.05555555555555555 0.05555555555555555 0.05555555555555555 0.05555555555555555 0.05555555555555555 0.05555555555555555 0.05555555555555555 0.05555555555555555 0.05555555555555555 0.05555555555555555 0.05555555555555555 0.05555555555555555 0.05555555555555555 0.05555555555555555 0.05555555555555555 0.05555555555555555 0.05555555555555555 0.05555555555555555 0.05555555555555555 0.05555555555555555 0.05555555555555555 0.05555555555555555 0.05555555555555555 0.05555555555555555 0.05555555555555555 0.05555555555555555 0.05555555555555555 0.05555555555555555 0.05555555555555555 0.05555555555555555 0.05555555555555555 0.05555555555555555 0.05555555555555555 0.05555555555555555 0.05555555555555555 0.05555555555555555 0.05555555555555555 0.05555555555555555 0.05555555555555555 0.05555555555555555 0.05555555555555555 0.05555555555555555 0.05555555555555555 0.05555555555555555 0.05555555555555555 0.05555555555555555 0.05555555555555555 0.05555555555555555 0.05555555555555555 0.05555555555555555 0.05555555555555555 0.05555555555555555 0.05555555555555555 0.05555555555555555 0.05555555555555555 0.05555555555555555 0.05555555555555555 0.05555555555555555 0.05555555555555555 0.05555555555555555 0.05555555555555555 0.05555555555555555 0.05555555555555555 0.05555555555555555 0.05555555555555555 0.05555555555555555 0.05555555555555555 0.05555555555555555 0.05555555555555555 0.05555555555555555 0.05555555555555555 0.05555555555555555 0.05555555555555555 0.05555555555555555 0.05555555555555555 0.05555555555555555 0.05555555555555555 0.05555555555555555 0.05555555555555555 0.05555555555555555 0.05555555555555555 0.05555555555555555 0.05555555555555555 0.05555555555555555 0.05555555555555555 0.05555555555555555 0.05555555555555555 0.05555555555555555 0.05555555555555555 0.05555555555555555 0.05555555555555555 0.05555555555555555 0.05555555555555555 0.05555555555555555 0.02294685990338164 0.06642512077294685 0.06642512077294685 0.04468599033816425 0.1316425120772947 0.02294685990338164 0.08816425120772946 0.06642512077294685 0.1099033816425121 0.04468599033816425 0.1533816425120773 0.06642512077294685 0.1099033816425121 0.001207729468599034 0.001207729468599034 0.001207729468599034 0.001207729468599034 0.001207729468599034 0.06209150326797386 0.06209150326797386 0.1209150326797385 0.00326797385620915 0.00326797385620915 0.1209150326797385 0.06209150326797386 0.00326797385620915 0.06209150326797386 0.1797385620915032 0.1209150326797385 0.00326797385620915 0.06209150326797386 0.00326797385620915 0.00326797385620915 0.1209150326797385 0.00326797385620915 0.00326797385620915 0.06228956228956228 0.06228956228956228 0.03198653198653199 0.06228956228956228 0.06228956228956228 0.06228956228956228 0.001683501683501683 0.001683501683501683 0.03198653198653199 0.06228956228956228 0.1531986531986532 0.1228956228956229 0.2138047138047138 0.03198653198653199 0.03198653198653199 0.001683501683501683 0.001683501683501683 0.001683501683501683 0.05878552971576227 0.09366925064599482 0.05878552971576227 0.04715762273901809 0.04715762273901809 0.07041343669250645 0.105297157622739 0.07041343669250645 0.1169250645994832 0.0355297157622739 0.05878552971576227 0.08204134366925064 0.1169250645994832 0.0006459948320413436 0.01227390180878553 0.01227390180878553 0.01227390180878553 0.0006459948320413436 0.04774305555555555 0.06336805555555555 0.09461805555555555 0.07899305555555555 0.07899305555555555 0.04774305555555555 0.06336805555555555 0.1414930555555556 0.09461805555555555 0.04774305555555555 0.09461805555555555 0.07899305555555555 0.03211805555555555 0.0008680555555555555 0.0008680555555555555 0.0008680555555555555 0.01649305555555556 0.01649305555555556 0.07905982905982906 0.002136752136752137 0.07905982905982906 0.002136752136752137 0.0405982905982906 0.0405982905982906 0.155982905982906 0.0405982905982906 0.155982905982906 0.002136752136752137 0.07905982905982906 0.1175213675213675 0.1944444444444444 0.002136752136752137 0.002136752136752137 0.002136752136752137 0.002136752136752137 0.002136752136752137 0.002777777777777778 0.05277777777777778 0.05277777777777778 0.1027777777777778 0.05277777777777778 0.05277777777777778 0.002777777777777778 0.1027777777777778 0.1527777777777778 0.2527777777777778 0.05277777777777778 0.1027777777777778 0.002777777777777778 0.002777777777777778 0.002777777777777778 0.002777777777777778 0.002777777777777778 0.002777777777777778 0.007936507936507938 0.007936507936507938 0.007936507936507938 0.007936507936507938 0.2936507936507937 0.007936507936507938 0.1507936507936508 0.007936507936507938 0.007936507936507938 0.007936507936507938 0.007936507936507938 0.1507936507936508 0.1507936507936508 0.007936507936507938 0.007936507936507938 0.007936507936507938 0.1507936507936508 0.007936507936507938 0.00617283950617284 0.117283950617284 0.2283950617283951 0.00617283950617284 0.00617283950617284 0.00617283950617284 0.117283950617284 0.3395061728395062 0.117283950617284 0.00617283950617284 0.00617283950617284 0.00617283950617284 0.00617283950617284 0.00617283950617284 0.00617283950617284 0.00617283950617284 0.00617283950617284 0.00617283950617284 0.1172839506172839 0.1172839506172839 0.006172839506172839 0.006172839506172839 0.006172839506172839 0.006172839506172839 0.006172839506172839 0.1172839506172839 0.228395061728395 0.1172839506172839 0.1172839506172839 0.006172839506172839 0.006172839506172839 0.006172839506172839 0.006172839506172839 0.006172839506172839 0.1172839506172839 0.006172839506172839 0.005050505050505051 0.1868686868686869 0.09595959595959598 0.09595959595959598 0.09595959595959598 0.005050505050505051 0.09595959595959598 0.005050505050505051 0.09595959595959598 0.09595959595959598 0.1868686868686869 0.005050505050505051 0.005050505050505051 0.005050505050505051 0.005050505050505051 0.005050505050505051 0.005050505050505051 0.005050505050505051 0.02777777777777778 0.02777777777777778 0.02777777777777778 0.02777777777777778 0.02777777777777778 0.02777777777777778 0.02777777777777778 0.02777777777777778 0.02777777777777778 0.02777777777777778 0.02777777777777778 0.02777777777777778 0.5277777777777778 0.02777777777777778 0.02777777777777778 0.02777777777777778 0.02777777777777778 0.02777777777777778 0.05555555555555555 0.05555555555555555 0.05555555555555555 0.05555555555555555 0.05555555555555555 0.05555555555555555 0.05555555555555555 0.05555555555555555 0.05555555555555555 0.05555555555555555 0.05555555555555555 0.05555555555555555 0.05555555555555555 0.05555555555555555 0.05555555555555555 0.05555555555555555 0.05555555555555555 0.05555555555555555 0.05555555555555555 0.05555555555555555 0.05555555555555555 0.05555555555555555 0.05555555555555555 0.05555555555555555 0.05555555555555555 0.05555555555555555 0.05555555555555555 0.05555555555555555 0.05555555555555555 0.05555555555555555 0.05555555555555555 0.05555555555555555 0.05555555555555555 0.05555555555555555 0.05555555555555555 0.05555555555555555 0.05555555555555555 0.05555555555555555 0.05555555555555555 0.05555555555555555 0.05555555555555555 0.05555555555555555 0.05555555555555555 0.05555555555555555 0.05555555555555555 0.05555555555555555 0.05555555555555555 0.05555555555555555 0.05555555555555555 0.05555555555555555 0.05555555555555555 0.05555555555555555 0.05555555555555555 0.05555555555555555 0.05555555555555555 0.05555555555555555 0.05555555555555555 0.05555555555555555 0.05555555555555555 0.05555555555555555 0.05555555555555555 0.05555555555555555 0.05555555555555555 0.05555555555555555 0.05555555555555555 0.05555555555555555 0.05555555555555555 0.05555555555555555 0.05555555555555555 0.05555555555555555 0.05555555555555555 0.05555555555555555 0.05555555555555555 0.05555555555555555 0.05555555555555555 0.05555555555555555 0.05555555555555555 0.05555555555555555 0.05555555555555555 0.05555555555555555 0.05555555555555555 0.05555555555555555 0.05555555555555555 0.05555555555555555 0.05555555555555555 0.05555555555555555 0.05555555555555555 0.05555555555555555 0.05555555555555555 0.05555555555555555 0.05555555555555555 0.05555555555555555 0.05555555555555555 0.05555555555555555 0.05555555555555555 0.05555555555555555 0.05555555555555555 0.05555555555555555 0.05555555555555555 0.05555555555555555 0.05555555555555555 0.05555555555555555 0.05555555555555555 0.05555555555555555 0.05555555555555555 0.05555555555555555 0.05555555555555555 0.05555555555555555 0.1011111111111111 0.08111111111111111 0.1011111111111111 0.02111111111111111 0.06111111111111111 0.06111111111111111 0.06111111111111111 0.04111111111111111 0.1811111111111111 0.08111111111111111 0.04111111111111111 0.04111111111111111 0.08111111111111111 0.001111111111111111 0.04111111111111111 0.001111111111111111 0.001111111111111111 0.001111111111111111 0.09788359788359786 0.05026455026455026 0.1455026455026455 0.1455026455026455 0.05026455026455026 0.002645502645502645 0.05026455026455026 0.05026455026455026 0.002645502645502645 0.05026455026455026 0.09788359788359786 0.09788359788359786 0.1455026455026455 0.002645502645502645 0.002645502645502645 0.002645502645502645 0.002645502645502645 0.002645502645502645 0.09951159951159952 0.08852258852258853 0.07753357753357754 0.06654456654456654 0.07753357753357754 0.03357753357753358 0.05555555555555556 0.1105006105006105 0.06654456654456654 0.05555555555555556 0.09951159951159952 0.08852258852258853 0.05555555555555556 0.0006105006105006105 0.0115995115995116 0.0006105006105006105 0.0115995115995116 0.0006105006105006105 0.04482948294829483 0.07948294829482949 0.06958195819581958 0.06958195819581958 0.08443344334433445 0.0992849284928493 0.0992849284928493 0.04482948294829483 0.07948294829482949 0.08443344334433445 0.07948294829482949 0.05473047304730473 0.06958195819581958 0.000275027502750275 0.02502750275027503 0.005225522552255226 0.01017601760176018 0.000275027502750275 0.05512152777777778 0.04730902777777778 0.03168402777777778 0.1176215277777778 0.07855902777777778 0.07074652777777778 0.09418402777777778 0.08637152777777778 0.1098090277777778 0.06293402777777778 0.09418402777777778 0.04730902777777778 0.07855902777777778 0.008246527777777778 0.008246527777777778 0.0004340277777777778 0.0004340277777777778 0.008246527777777778 0.1211111111111111 0.1011111111111111 0.001111111111111111 0.04111111111111111 0.06111111111111111 0.06111111111111111 0.1411111111111111 0.02111111111111111 0.02111111111111111 0.1011111111111111 0.06111111111111111 0.1611111111111111 0.04111111111111111 0.001111111111111111 0.02111111111111111 0.02111111111111111 0.02111111111111111 0.001111111111111111 0.1273148148148148 0.002314814814814815 0.08564814814814814 0.002314814814814815 0.1273148148148148 0.08564814814814814 0.08564814814814814 0.04398148148148148 0.08564814814814814 0.08564814814814814 0.002314814814814815 0.1689814814814815 0.04398148148148148 0.002314814814814815 0.04398148148148148 0.002314814814814815 0.002314814814814815 0.002314814814814815 0.05864197530864197 0.05864197530864197 0.00308641975308642 0.00308641975308642 0.1141975308641975 0.05864197530864197 0.05864197530864197 0.1697530864197531 0.1697530864197531 0.05864197530864197 0.00308641975308642 0.1141975308641975 0.1141975308641975 0.00308641975308642 0.00308641975308642 0.00308641975308642 0.00308641975308642 0.00308641975308642 0.0710594315245478 0.001291989664082687 0.02454780361757106 0.04780361757105943 0.0710594315245478 0.0710594315245478 0.09431524547803617 0.1873385012919896 0.02454780361757106 0.1640826873385013 0.001291989664082687 0.04780361757105943 0.1175710594315245 0.001291989664082687 0.02454780361757106 0.02454780361757106 0.02454780361757106 0.001291989664082687 0.06045751633986927 0.03104575163398693 0.08986928104575162 0.119281045751634 0.03104575163398693 0.119281045751634 0.08986928104575162 0.001633986928104575 0.1781045751633987 0.08986928104575162 0.001633986928104575 0.03104575163398693 0.119281045751634 0.001633986928104575 0.03104575163398693 0.001633986928104575 0.001633986928104575 0.001633986928104575 0.0954861111111111 0.001736111111111111 0.0954861111111111 0.03298611111111111 0.0954861111111111 0.03298611111111111 0.0642361111111111 0.0642361111111111 0.0954861111111111 0.0954861111111111 0.03298611111111111 0.03298611111111111 0.2204861111111111 0.001736111111111111 0.001736111111111111 0.001736111111111111 0.001736111111111111 0.03298611111111111 0.1581196581196581 0.004273504273504274 0.0811965811965812 0.1581196581196581 0.0811965811965812 0.0811965811965812 0.004273504273504274 0.004273504273504274 0.0811965811965812 0.0811965811965812 0.004273504273504274 0.0811965811965812 0.1581196581196581 0.004273504273504274 0.004273504273504274 0.004273504273504274 0.004273504273504274 0.004273504273504274 0.05555555555555555 0.05555555555555555 0.05555555555555555 0.05555555555555555 0.05555555555555555 0.05555555555555555 0.05555555555555555 0.05555555555555555 0.05555555555555555 0.05555555555555555 0.05555555555555555 0.05555555555555555 0.05555555555555555 0.05555555555555555 0.05555555555555555 0.05555555555555555 0.05555555555555555 0.05555555555555555 0.05555555555555555 0.05555555555555555 0.05555555555555555 0.05555555555555555 0.05555555555555555 0.05555555555555555 0.05555555555555555 0.05555555555555555 0.05555555555555555 0.05555555555555555 0.05555555555555555 0.05555555555555555 0.05555555555555555 0.05555555555555555 0.05555555555555555 0.05555555555555555 0.05555555555555555 0.05555555555555555 0.05555555555555555 0.05555555555555555 0.05555555555555555 0.05555555555555555 0.05555555555555555 0.05555555555555555 0.05555555555555555 0.05555555555555555 0.05555555555555555 0.05555555555555555 0.05555555555555555 0.05555555555555555 0.05555555555555555 0.05555555555555555 0.05555555555555555 0.05555555555555555 0.05555555555555555 0.05555555555555555 0.05555555555555555 0.05555555555555555 0.05555555555555555 0.05555555555555555 0.05555555555555555 0.05555555555555555 0.05555555555555555 0.05555555555555555 0.05555555555555555 0.05555555555555555 0.05555555555555555 0.05555555555555555 0.05555555555555555 0.05555555555555555 0.05555555555555555 0.05555555555555555 0.05555555555555555 0.05555555555555555 0.05555555555555555 0.05555555555555555 0.05555555555555555 0.05555555555555555 0.05555555555555555 0.05555555555555555 0.05555555555555555 0.05555555555555555 0.05555555555555555 0.05555555555555555 0.05555555555555555 0.05555555555555555 0.05555555555555555 0.05555555555555555 0.05555555555555555 0.05555555555555555 0.05555555555555555 0.05555555555555555 0.05555555555555555 0.05555555555555555 0.05555555555555555 0.05555555555555555 0.05555555555555555 0.05555555555555555 0.05555555555555555 0.05555555555555555 0.05555555555555555 0.05555555555555555 0.05555555555555555 0.05555555555555555 0.05555555555555555 0.05555555555555555 0.05555555555555555 0.05555555555555555 0.05555555555555555 0.05555555555555555 0.01388888888888889 0.01388888888888889 0.01388888888888889 0.2638888888888889 0.01388888888888889 0.01388888888888889 0.2638888888888889 0.01388888888888889 0.01388888888888889 0.01388888888888889 0.01388888888888889 0.2638888888888889 0.01388888888888889 0.01388888888888889 0.01388888888888889 0.01388888888888889 0.01388888888888889 0.01388888888888889 0.05555555555555555 0.05555555555555555 0.05555555555555555 0.05555555555555555 0.05555555555555555 0.05555555555555555 0.05555555555555555 0.05555555555555555 0.05555555555555555 0.05555555555555555 0.05555555555555555 0.05555555555555555 0.05555555555555555 0.05555555555555555 0.05555555555555555 0.05555555555555555 0.05555555555555555 0.05555555555555555 0.05555555555555555 0.05555555555555555 0.05555555555555555 0.05555555555555555 0.05555555555555555 0.05555555555555555 0.05555555555555555 0.05555555555555555 0.05555555555555555 0.05555555555555555 0.05555555555555555 0.05555555555555555 0.05555555555555555 0.05555555555555555 0.05555555555555555 0.05555555555555555 0.05555555555555555 0.05555555555555555 0.06176288019863439 0.06176288019863439 0.0952824332712601 0.0841092489137182 0.06734947237740534 0.07293606455617629 0.07293606455617629 0.08969584109248915 0.03941651148355059 0.08969584109248915 0.0952824332712601 0.05617628801986344 0.1120422098075729 0.0003103662321539416 0.0003103662321539416 0.0003103662321539416 0.0003103662321539416 0.0003103662321539416 0.08880435803512725 0.06682633605710528 0.08626843242227857 0.08204188973419742 0.08288719827181364 0.07189818728280266 0.08373250680942987 0.07697003850850004 0.07189818728280266 0.07697003850850004 0.06851695313233773 0.07274349582041889 0.06936226166995396 4.696158542312387e-05 0.0008922701230393537 4.696158542312387e-05 4.696158542312387e-05 4.696158542312387e-05 0.1448412698412698 0.1448412698412698 0.1091269841269841 0.1091269841269841 0.0376984126984127 0.1448412698412698 0.0734126984126984 0.001984126984126984 0.001984126984126984 0.0734126984126984 0.0734126984126984 0.001984126984126984 0.0734126984126984 0.001984126984126984 0.001984126984126984 0.001984126984126984 0.001984126984126984 0.001984126984126984 0.01851851851851852 0.01851851851851852 0.01851851851851852 0.3518518518518519 0.01851851851851852 0.01851851851851852 0.01851851851851852 0.01851851851851852 0.3518518518518519 0.01851851851851852 0.01851851851851852 0.01851851851851852 0.01851851851851852 0.01851851851851852 0.01851851851851852 0.01851851851851852 0.01851851851851852 0.01851851851851852 0.05555555555555555 0.05555555555555555 0.05555555555555555 0.05555555555555555 0.05555555555555555 0.05555555555555555 0.05555555555555555 0.05555555555555555 0.05555555555555555 0.05555555555555555 0.05555555555555555 0.05555555555555555 0.05555555555555555 0.05555555555555555 0.05555555555555555 0.05555555555555555 0.05555555555555555 0.05555555555555555 0.05555555555555555 0.05555555555555555 0.05555555555555555 0.05555555555555555 0.05555555555555555 0.05555555555555555 0.05555555555555555 0.05555555555555555 0.05555555555555555 0.05555555555555555 0.05555555555555555 0.05555555555555555 0.05555555555555555 0.05555555555555555 0.05555555555555555 0.05555555555555555 0.05555555555555555 0.05555555555555555 0.09873344847438113 0.04173862982153138 0.07800805987334485 0.09355210132412206 0.04691997697179044 0.1350028785261946 0.08318940702360393 0.07282671272308579 0.06764536557282672 0.06246401842256764 0.09355210132412206 0.05210132412204951 0.07282671272308579 0.000287852619458837 0.000287852619458837 0.000287852619458837 0.000287852619458837 0.000287852619458837 0.07961101805322909 0.07961101805322909 0.06621068304485389 0.07709845523915874 0.06956076679694768 0.08966126930951049 0.08044853899125254 0.08212358086729944 0.07709845523915874 0.08044853899125254 0.06956076679694768 0.07709845523915874 0.07123580867299459 4.65289410013028e-05 4.65289410013028e-05 4.65289410013028e-05 4.65289410013028e-05 4.65289410013028e-05 0.08040935672514619 0.08040935672514619 0.08040935672514619 0.08040935672514619 0.05409356725146198 0.08040935672514619 0.02777777777777778 0.08040935672514619 0.05409356725146198 0.185672514619883 0.08040935672514619 0.02777777777777778 0.08040935672514619 0.001461988304093567 0.001461988304093567 0.001461988304093567 0.001461988304093567 0.001461988304093567 0.05555555555555555 0.05555555555555555 0.05555555555555555 0.05555555555555555 0.05555555555555555 0.05555555555555555 0.05555555555555555 0.05555555555555555 0.05555555555555555 0.05555555555555555 0.05555555555555555 0.05555555555555555 0.05555555555555555 0.05555555555555555 0.05555555555555555 0.05555555555555555 0.05555555555555555 0.05555555555555555 0.05555555555555555 0.05555555555555555 0.05555555555555555 0.05555555555555555 0.05555555555555555 0.05555555555555555 0.05555555555555555 0.05555555555555555 0.05555555555555555 0.05555555555555555 0.05555555555555555 0.05555555555555555 0.05555555555555555 0.05555555555555555 0.05555555555555555 0.05555555555555555 0.05555555555555555 0.05555555555555555 0.05555555555555555 0.05555555555555555 0.05555555555555555 0.05555555555555555 0.05555555555555555 0.05555555555555555 0.05555555555555555 0.05555555555555555 0.05555555555555555 0.05555555555555555 0.05555555555555555 0.05555555555555555 0.05555555555555555 0.05555555555555555 0.05555555555555555 0.05555555555555555 0.05555555555555555 0.05555555555555555 0.05555555555555555 0.05555555555555555 0.05555555555555555 0.05555555555555555 0.05555555555555555 0.05555555555555555 0.05555555555555555 0.05555555555555555 0.05555555555555555 0.05555555555555555 0.05555555555555555 0.05555555555555555 0.05555555555555555 0.05555555555555555 0.05555555555555555 0.05555555555555555 0.05555555555555555 0.05555555555555555 0.02777777777777778 0.02777777777777778 0.02777777777777778 0.02777777777777778 0.02777777777777778 0.02777777777777778 0.02777777777777778 0.02777777777777778 0.02777777777777778 0.02777777777777778 0.5277777777777778 0.02777777777777778 0.02777777777777778 0.02777777777777778 0.02777777777777778 0.02777777777777778 0.02777777777777778 0.02777777777777778 0.05555555555555555 0.05555555555555555 0.05555555555555555 0.05555555555555555 0.05555555555555555 0.05555555555555555 0.05555555555555555 0.05555555555555555 0.05555555555555555 0.05555555555555555 0.05555555555555555 0.05555555555555555 0.05555555555555555 0.05555555555555555 0.05555555555555555 0.05555555555555555 0.05555555555555555 0.05555555555555555 0.06324248777078965 0.08839972047519218 0.03179594689028652 0.1009783368273934 0.08839972047519218 0.1072676450034941 0.07582110412299092 0.07582110412299092 0.08211041229909155 0.0506638714185884 0.06324248777078965 0.09468902865129281 0.07582110412299092 0.0003494060097833683 0.0003494060097833683 0.0003494060097833683 0.0003494060097833683 0.0003494060097833683 0.07651991614255764 0.03878406708595387 0.01991614255765199 0.05765199161425576 0.01991614255765199 0.1331236897274633 0.09538784067085954 0.01991614255765199 0.1331236897274633 0.1331236897274633 0.07651991614255764 0.1142557651991614 0.07651991614255764 0.001048218029350105 0.001048218029350105 0.001048218029350105 0.001048218029350105 0.001048218029350105 0.04373522458628841 0.08628841607565012 0.1713947990543735 0.04373522458628841 0.08628841607565012 0.04373522458628841 0.1288416075650118 0.08628841607565012 0.107565011820331 0.04373522458628841 0.02245862884160757 0.107565011820331 0.02245862884160757 0.001182033096926714 0.001182033096926714 0.001182033096926714 0.001182033096926714 0.001182033096926714 0.08476080246913581 0.06739969135802469 0.07503858024691358 0.07087191358024691 0.08753858024691359 0.06184413580246914 0.0798996913580247 0.06809413580246913 0.09864969135802469 0.06462191358024692 0.07087191358024691 0.08128858024691359 0.08753858024691359 3.858024691358025e-05 3.858024691358025e-05 3.858024691358025e-05 0.0007330246913580247 0.0007330246913580247 0.08616082525478498 0.07833084762614963 0.07497514292816305 0.06938230176485211 0.08112726820780511 0.08504225702212279 0.07609371116082525 0.07665299527715634 0.07161943823017648 0.06826373353218991 0.08895724583644046 0.06938230176485211 0.07217872234650757 0.0005903554561272682 0.0005903554561272682 3.107133979617201e-05 3.107133979617201e-05 0.0005903554561272682 0.06835369400814427 0.07882489819662596 0.04741128563118092 0.1050029086678301 0.0840605002908668 0.09453170447934847 0.09976730657358931 0.05264688772542176 0.07882489819662596 0.09453170447934847 0.06835369400814427 0.05264688772542176 0.07358929610238511 0.0002908667830133799 0.0002908667830133799 0.0002908667830133799 0.0002908667830133799 0.0002908667830133799 0.06657483930211203 0.07483930211202938 0.07483930211202938 0.04178145087235996 0.06657483930211203 0.05004591368227732 0.07483930211202938 0.07483930211202938 0.06657483930211203 0.08310376492194674 0.05004591368227732 0.1492194674012856 0.1244260789715335 0.0004591368227731864 0.0004591368227731864 0.0004591368227731864 0.0004591368227731864 0.0004591368227731864 0.1209150326797385 0.06209150326797386 0.00326797385620915 0.1209150326797385 0.00326797385620915 0.00326797385620915 0.1209150326797385 0.1797385620915032 0.1209150326797385 0.06209150326797386 0.00326797385620915 0.1209150326797385 0.06209150326797386 0.00326797385620915 0.00326797385620915 0.00326797385620915 0.00326797385620915 0.00326797385620915 0.1351851851851852 0.1018518518518518 0.1018518518518518 0.001851851851851852 0.1018518518518518 0.03518518518518519 0.06851851851851851 0.1685185185185185 0.06851851851851851 0.1351851851851852 0.001851851851851852 0.001851851851851852 0.06851851851851851 0.001851851851851852 0.001851851851851852 0.001851851851851852 0.001851851851851852 0.001851851851851852 0.07427300347222222 0.06939019097222222 0.08208550347222222 0.08696831597222222 0.08013237847222222 0.07622612847222222 0.08208550347222222 0.08110894097222222 0.07231987847222222 0.07427300347222222 0.06450737847222222 0.07817925347222222 0.07427300347222222 0.001030815972222222 5.425347222222222e-05 0.001030815972222222 0.001030815972222222 0.001030815972222222 0.07822805682394722 0.07822805682394722 0.07194951801116184 0.06795408422120751 0.08393581938102485 0.08736047691527142 0.06681253170979198 0.08393581938102485 0.08279426686960932 0.0770865043125317 0.06567097919837646 0.07480339928970065 0.07765728056823946 0.001173262303399289 3.170979198376458e-05 0.0006024860476915271 0.001744038559107052 3.170979198376458e-05 0.06887366818873669 0.05517503805175039 0.08257229832572299 0.06887366818873669 0.09627092846270931 0.1031202435312025 0.06887366818873669 0.06887366818873669 0.07572298325722984 0.07572298325722984 0.06202435312024354 0.08257229832572299 0.08942161339421616 0.0003805175038051751 0.0003805175038051751 0.0003805175038051751 0.0003805175038051751 0.0003805175038051751 0.05555555555555555 0.05555555555555555 0.05555555555555555 0.05555555555555555 0.05555555555555555 0.05555555555555555 0.05555555555555555 0.05555555555555555 0.05555555555555555 0.05555555555555555 0.05555555555555555 0.05555555555555555 0.05555555555555555 0.05555555555555555 0.05555555555555555 0.05555555555555555 0.05555555555555555 0.05555555555555555 0.05555555555555555 0.05555555555555555 0.05555555555555555 0.05555555555555555 0.05555555555555555 0.05555555555555555 0.05555555555555555 0.05555555555555555 0.05555555555555555 0.05555555555555555 0.05555555555555555 0.05555555555555555 0.05555555555555555 0.05555555555555555 0.05555555555555555 0.05555555555555555 0.05555555555555555 0.05555555555555555 0.05555555555555555 0.05555555555555555 0.05555555555555555 0.05555555555555555 0.05555555555555555 0.05555555555555555 0.05555555555555555 0.05555555555555555 0.05555555555555555 0.05555555555555555 0.05555555555555555 0.05555555555555555 0.05555555555555555 0.05555555555555555 0.05555555555555555 0.05555555555555555 0.05555555555555555 0.05555555555555555 0.05555555555555555 0.05555555555555555 0.05555555555555555 0.05555555555555555 0.05555555555555555 0.05555555555555555 0.05555555555555555 0.05555555555555555 0.05555555555555555 0.05555555555555555 0.05555555555555555 0.05555555555555555 0.05555555555555555 0.05555555555555555 0.05555555555555555 0.05555555555555555 0.05555555555555555 0.05555555555555555 0.01851851851851852 0.01851851851851852 0.01851851851851852 0.01851851851851852 0.01851851851851852 0.01851851851851852 0.01851851851851852 0.01851851851851852 0.01851851851851852 0.3518518518518519 0.01851851851851852 0.3518518518518519 0.01851851851851852 0.01851851851851852 0.01851851851851852 0.01851851851851852 0.01851851851851852 0.01851851851851852 0.02777777777777778 0.02777777777777778 0.5277777777777778 0.02777777777777778 0.02777777777777778 0.02777777777777778 0.02777777777777778 0.02777777777777778 0.02777777777777778 0.02777777777777778 0.02777777777777778 0.02777777777777778 0.02777777777777778 0.02777777777777778 0.02777777777777778 0.02777777777777778 0.02777777777777778 0.02777777777777778 0.07933362688976957 0.06083957140760311 0.06876559518567445 0.0872596506678409 0.07404961103772201 0.0991486863349479 0.08990165859386468 0.08858065463085278 0.07537061500073389 0.06744459122266255 0.05687655951856745 0.07801262292675767 0.06744459122266255 7.338910905621606e-05 0.002715397035079994 7.338910905621606e-05 0.002715397035079994 0.001394393072068105 0.055119825708061 0.1061002178649238 0.1139433551198257 0.05904139433551198 0.05904139433551198 0.05904139433551198 0.09041394335511983 0.06296296296296297 0.08649237472766885 0.05904139433551198 0.07080610021786493 0.09041394335511983 0.08649237472766885 0.0002178649237472767 0.0002178649237472767 0.0002178649237472767 0.0002178649237472767 0.0002178649237472767 0.0549847792998478 0.05156012176560121 0.1132039573820396 0.07895738203957382 0.0823820395738204 0.07895738203957382 0.05156012176560121 0.0823820395738204 0.04471080669710806 0.08923135464231355 0.08923135464231355 0.1132039573820396 0.0686834094368341 0.0001902587519025875 0.0001902587519025875 0.0001902587519025875 0.0001902587519025875 0.0001902587519025875 0.07034604155933367 0.07923321312038467 0.08039240941095654 0.06493645886999827 0.08000601064743258 0.08155160570152842 0.08000601064743258 0.07884681435686072 0.08077880817448051 0.08155160570152842 0.07884681435686072 0.06532285763352223 0.07421002919457324 0.0004078653614975099 0.00156706165206938 0.0004078653614975099 0.0004078653614975099 0.001180662888545423 0.07093728506221472 0.07994122428562496 0.08162946289001438 0.0776902394797724 0.06981179265928844 0.07375101606953041 0.07093728506221472 0.07318826986806727 0.07600200087538297 0.08613143250171949 0.08162946289001438 0.07881573188269868 0.07825298568123554 3.126367785906334e-05 3.126367785906334e-05 3.126367785906334e-05 0.0005940098793222035 0.0005940098793222035 0.06788681204569055 0.07255970924195224 0.0819055036344756 0.06788681204569055 0.09358774662512979 0.07022326064382139 0.08424195223260643 0.07723260643821392 0.07723260643821392 0.07022326064382139 0.1005970924195223 0.07956905503634476 0.05153167185877466 0.002466251298026999 0.0001298026998961578 0.002466251298026999 0.0001298026998961578 0.0001298026998961578 0.0882814030962179 0.05653537135018617 0.06711738193219674 0.06535371350186164 0.08651773466588281 0.09709974524789339 0.07946306094454242 0.07240838722320203 0.08122672937487752 0.090045071526553 0.06182637664119146 0.08299039780521261 0.06711738193219674 0.001861650009798158 0.001861650009798158 9.798157946306093e-05 9.798157946306093e-05 9.798157946306093e-05 0.09124579124579124 0.05488215488215488 0.06094276094276094 0.07912457912457913 0.07912457912457913 0.067003367003367 0.09124579124579124 0.06094276094276094 0.06094276094276094 0.1215488215488216 0.09124579124579124 0.04882154882154882 0.08518518518518518 0.0003367003367003367 0.0003367003367003367 0.0003367003367003367 0.0003367003367003367 0.006397306397306397 0.09672021419009372 0.0605756358768407 0.07864792503346721 0.05455153949129853 0.06659973226238286 0.1027443105756359 0.08467202141900937 0.01238286479250335 0.0605756358768407 0.1388888888888889 0.09069611780455154 0.08467202141900937 0.06659973226238286 0.0003346720214190094 0.0003346720214190094 0.0003346720214190094 0.0003346720214190094 0.0003346720214190094 0.08693125949763117 0.07727719674622328 0.0676231339948154 0.06842763922409939 0.07245016537051933 0.06038258693125949 0.07808170197550728 0.07727719674622328 0.07727719674622328 0.07808170197550728 0.07486368105837131 0.09014928041476712 0.08290873335121121 0.004067220881380173 0.0008491999642442118 0.0008491999642442118 0.001653705193528202 0.0008491999642442118 0.08110467787887142 0.07448763900376802 0.08606745703519895 0.0736605091443801 0.0736605091443801 0.0877217167539748 0.08027754801948349 0.07448763900376802 0.06869772998805256 0.06290782097233709 0.08937597647275065 0.06869772998805256 0.07779615844131972 0.0008730815182428084 4.595165885488465e-05 4.595165885488465e-05 4.595165885488465e-05 4.595165885488465e-05 0.05669515669515669 0.1028490028490029 0.06695156695156695 0.0925925925925926 0.07207977207977208 0.09772079772079773 0.05669515669515669 0.09772079772079773 0.09772079772079773 0.06695156695156695 0.05156695156695157 0.0772079772079772 0.05156695156695157 0.0002849002849002849 0.0002849002849002849 0.0002849002849002849 0.005413105413105413 0.005413105413105413 0.05555555555555555 0.05555555555555555 0.05555555555555555 0.05555555555555555 0.05555555555555555 0.05555555555555555 0.05555555555555555 0.05555555555555555 0.05555555555555555 0.05555555555555555 0.05555555555555555 0.05555555555555555 0.05555555555555555 0.05555555555555555 0.05555555555555555 0.05555555555555555 0.05555555555555555 0.05555555555555555 0.02777777777777778 0.02777777777777778 0.02777777777777778 0.02777777777777778 0.5277777777777778 0.02777777777777778 0.02777777777777778 0.02777777777777778 0.02777777777777778 0.02777777777777778 0.02777777777777778 0.02777777777777778 0.02777777777777778 0.02777777777777778 0.02777777777777778 0.02777777777777778 0.02777777777777778 0.02777777777777778 0.05555555555555555 0.05555555555555555 0.05555555555555555 0.05555555555555555 0.05555555555555555 0.05555555555555555 0.05555555555555555 0.05555555555555555 0.05555555555555555 0.05555555555555555 0.05555555555555555 0.05555555555555555 0.05555555555555555 0.05555555555555555 0.05555555555555555 0.05555555555555555 0.05555555555555555 0.05555555555555555 0.05555555555555555 0.05555555555555555 0.05555555555555555 0.05555555555555555 0.05555555555555555 0.05555555555555555 0.05555555555555555 0.05555555555555555 0.05555555555555555 0.05555555555555555 0.05555555555555555 0.05555555555555555 0.05555555555555555 0.05555555555555555 0.05555555555555555 0.05555555555555555 0.05555555555555555 0.05555555555555555 0.02777777777777778 0.02777777777777778 0.02777777777777778 0.02777777777777778 0.02777777777777778 0.02777777777777778 0.5277777777777778 0.02777777777777778 0.02777777777777778 0.02777777777777778 0.02777777777777778 0.02777777777777778 0.02777777777777778 0.02777777777777778 0.02777777777777778 0.02777777777777778 0.02777777777777778 0.02777777777777778 0.02777777777777778 0.02777777777777778 0.02777777777777778 0.02777777777777778 0.02777777777777778 0.02777777777777778 0.02777777777777778 0.02777777777777778 0.02777777777777778 0.02777777777777778 0.02777777777777778 0.5277777777777778 0.02777777777777778 0.02777777777777778 0.02777777777777778 0.02777777777777778 0.02777777777777778 0.02777777777777778 0.08970999301187982 0.08184835779175402 0.07870370370370371 0.08970999301187982 0.07555904961565339 0.08184835779175402 0.0456848357791754 0.08813766596785465 0.05983577917540182 0.06769741439552761 0.07084206848357792 0.07084206848357792 0.08970999301187982 0.004804332634521314 8.735150244584206e-05 0.001659678546470999 8.735150244584206e-05 0.003232005590496156 0.0771604938271605 0.07288698955365623 0.06006647673314341 0.08998100664767333 0.0771604938271605 0.06861348528015196 0.08570750237416906 0.09852801519468188 0.07288698955365623 0.06433998100664767 0.05579297245963913 0.08570750237416906 0.08998100664767333 0.0002374169040835708 0.0002374169040835708 0.0002374169040835708 0.0002374169040835708 0.0002374169040835708 0.07993035770813549 0.0742323520101298 0.1027223805001583 0.08562836340614119 0.09702437480215259 0.08562836340614119 0.08277936055713835 0.0742323520101298 0.0571383349161127 0.0628363406141184 0.08847736625514405 0.05998733776511555 0.0457423235201013 0.003007280785058563 0.0001582779360557138 0.0001582779360557138 0.0001582779360557138 0.0001582779360557138 0.0860493309087518 0.07304051848743413 0.06716557094232294 0.08059402247400568 0.07471907492889447 0.08395113535692637 0.07723690959108499 0.0768172704807199 0.07723690959108499 0.08101366158437077 0.07220124026670396 0.06590665361122768 0.07807618781181516 0.0008625915046393435 0.001282230615004429 0.0008625915046393435 0.0008625915046393435 0.002121508835734602 0.08292507675223725 0.06705206087922137 0.07880985041478868 0.06705206087922137 0.07763407146123195 0.08057351884512377 0.07234306617022666 0.07998562936834541 0.07880985041478868 0.0717551766934483 0.07822196093801032 0.07763407146123195 0.08351296622901561 0.0006205500032660527 0.0006205500032660527 0.0006205500032660527 0.001208439480044418 0.0006205500032660527 0.1006586483390607 0.08004009163802979 0.05942153493699886 0.1058132875143184 0.09292668957617412 0.08004009163802979 0.07230813287514319 0.05942153493699886 0.05684421534936999 0.07746277205040092 0.07488545246277205 0.07230813287514319 0.05942153493699886 0.002720504009163803 0.000143184421534937 0.000143184421534937 0.005297823596792668 0.000143184421534937 0.06652702972272093 0.0737083582685019 0.06652702972272093 0.07909435467783762 0.08268501895072811 0.06832236185916617 0.09525234390584481 0.07909435467783762 0.07011769399561142 0.08088968681428287 0.08268501895072811 0.0737083582685019 0.0611410333133852 9.974067424695791e-05 0.007281069220027928 0.0018950728106922 0.0018950728106922 0.00907640135647317 0.09916020671834626 0.09916020671834626 0.08753229974160207 0.0584625322997416 0.04102067183462532 0.0584625322997416 0.05264857881136951 0.07590439276485787 0.1224160206718346 0.08753229974160207 0.09334625322997417 0.06427648578811369 0.05264857881136951 0.0003229974160206718 0.0003229974160206718 0.0003229974160206718 0.0003229974160206718 0.006136950904392765 0.0829156223893066 0.06411862990810359 0.097953216374269 0.0829156223893066 0.06035923141186299 0.07539682539682539 0.0941938178780284 0.06411862990810359 0.0829156223893066 0.07163742690058479 0.07163742690058479 0.06411862990810359 0.07915622389306599 0.0002088554720133667 0.0002088554720133667 0.0002088554720133667 0.0002088554720133667 0.007727652464494568 0.06991890959282263 0.07690648723257418 0.07923567977915802 0.06991890959282263 0.06914251207729467 0.06293133195307107 0.07535369220151827 0.08078847481021392 0.08389406487232573 0.08622325741890957 0.07845928226363008 0.07768288474810213 0.07845928226363008 0.001595928226363009 0.002372325741890959 0.002372325741890959 0.003148723257418909 0.001595928226363009 0.07370498748315038 0.0927691122665126 0.08756980550741381 0.08063739649528209 0.07977084536876564 0.07370498748315038 0.08063739649528209 0.06590602734450221 0.0685056807240516 0.07803774311573271 0.06937223185056807 0.07023878297708452 0.06937223185056807 4.814172925091468e-05 4.814172925091468e-05 0.006113999614866165 0.002647795108800307 0.000914692855767379 0.09323858742463394 0.06223083548664945 0.05060292850990526 0.07385874246339363 0.1048664944013781 0.07773471145564169 0.06610680447889751 0.07385874246339363 0.09711455641688201 0.06610680447889751 0.06998277347114557 0.09711455641688201 0.06610680447889751 0.0002153316106804479 0.0002153316106804479 0.0002153316106804479 0.0002153316106804479 0.0002153316106804479 0.05555555555555555 0.05555555555555555 0.05555555555555555 0.05555555555555555 0.05555555555555555 0.05555555555555555 0.05555555555555555 0.05555555555555555 0.05555555555555555 0.05555555555555555 0.05555555555555555 0.05555555555555555 0.05555555555555555 0.05555555555555555 0.05555555555555555 0.05555555555555555 0.05555555555555555 0.05555555555555555 0.05555555555555555 0.05555555555555555 0.05555555555555555 0.05555555555555555 0.05555555555555555 0.05555555555555555 0.05555555555555555 0.05555555555555555 0.05555555555555555 0.05555555555555555 0.05555555555555555 0.05555555555555555 0.05555555555555555 0.05555555555555555 0.05555555555555555 0.05555555555555555 0.05555555555555555 0.05555555555555555 0.05555555555555555 0.05555555555555555 0.05555555555555555 0.05555555555555555 0.05555555555555555 0.05555555555555555 0.05555555555555555 0.05555555555555555 0.05555555555555555 0.05555555555555555 0.05555555555555555 0.05555555555555555 0.05555555555555555 0.05555555555555555 0.05555555555555555 0.05555555555555555 0.05555555555555555 0.05555555555555555 0.05555555555555555 0.05555555555555555 0.05555555555555555 0.05555555555555555 0.05555555555555555 0.05555555555555555 0.05555555555555555 0.05555555555555555 0.05555555555555555 0.05555555555555555 0.05555555555555555 0.05555555555555555 0.05555555555555555 0.05555555555555555 0.05555555555555555 0.05555555555555555 0.05555555555555555 0.05555555555555555 0.05555555555555555 0.05555555555555555 0.05555555555555555 0.05555555555555555 0.05555555555555555 0.05555555555555555 0.05555555555555555 0.05555555555555555 0.05555555555555555 0.05555555555555555 0.05555555555555555 0.05555555555555555 0.05555555555555555 0.05555555555555555 0.05555555555555555 0.05555555555555555 0.05555555555555555 0.05555555555555555 0.02777777777777778 0.5277777777777778 0.02777777777777778 0.02777777777777778 0.02777777777777778 0.02777777777777778 0.02777777777777778 0.02777777777777778 0.02777777777777778 0.02777777777777778 0.02777777777777778 0.02777777777777778 0.02777777777777778 0.02777777777777778 0.02777777777777778 0.02777777777777778 0.02777777777777778 0.02777777777777778 0.08318674875403108 0.06735561418938728 0.07922896511287013 0.06075930812078569 0.07790970389914981 0.06471709176194665 0.08054822632659044 0.08582527118147171 0.07263265904426855 0.06339783054822633 0.07659044268542949 0.09637936089123424 0.07395192025798886 0.004031075930812078 0.002711814717091762 0.002711814717091762 0.005350337144532395 0.002711814717091762 0.07977700884275279 0.04863514033064206 0.07631680123029605 0.09015763168012304 0.08323721645520954 0.07631680123029605 0.07631680123029605 0.06247597078046906 0.05901576316801231 0.07631680123029605 0.08323721645520954 0.07977700884275279 0.09015763168012304 0.0001922337562475971 0.007112648981161092 0.003652441368704345 0.007112648981161092 0.0001922337562475971 0.0695906432748538 0.09274853801169591 0.07801169590643275 0.07380116959064327 0.08853801169590643 0.08853801169590643 0.06748538011695907 0.07169590643274854 0.05695906432748538 0.08432748538011696 0.06538011695906433 0.06327485380116959 0.07590643274853802 0.004327485380116959 0.008538011695906431 0.004327485380116959 0.0001169590643274854 0.006432748538011695 0.07880598397480432 0.06671761382057338 0.07046917697188643 0.07088601732203233 0.07838914362465842 0.0729702190727618 0.08214070677597146 0.07713862257422073 0.07838914362465842 0.07672178222407484 0.08339122782640915 0.08380806817655505 0.06838497522115695 0.002107359547959798 0.001690519197813904 0.002524199898105692 0.002107359547959798 0.003357880598397481 0.07092539225104066 0.07150176112712137 0.06804354787063721 0.08072366314441241 0.08130003202049312 0.08821645853346141 0.08475824527697726 0.08418187640089657 0.0622798591098303 0.06977265449887929 0.08475824527697726 0.07380723663144412 0.06631444124239513 0.0006083893691962857 0.003490233749599744 0.00233749599743836 0.003490233749599744 0.003490233749599744 0.08325886207923743 0.08593982722669051 0.05376824545725351 0.06181114089961275 0.08325886207923743 0.069854036341972 0.069854036341972 0.069854036341972 0.07789693178433126 0.069854036341972 0.09130175752159667 0.08057789693178434 0.08593982722669051 0.0001489425081918379 0.0001489425081918379 0.0001489425081918379 0.01087280309800417 0.005510872803098004 0.07352479598242311 0.06928750784682988 0.06222536095417452 0.05798807281858129 0.07634965473948525 0.07211236660389203 0.08482423101067169 0.06505021971123666 0.09188637790332706 0.06222536095417452 0.07211236660389203 0.08623666038920276 0.09894852479598243 0.007140615191462649 0.001490897677338355 0.005728185812931576 0.007140615191462649 0.005728185812931576 0.04870288790993637 0.04429760156632404 0.06191874694077338 0.09275575134605973 0.07072931962799806 0.04870288790993637 0.09275575134605973 0.1059716103768967 0.1147821830641214 0.06632403328438571 0.06632403328438571 0.07953989231522272 0.09275575134605973 0.004650024473813021 0.0002447381302006853 0.004650024473813021 0.0002447381302006853 0.004650024473813021 0.07774584929757344 0.07199872286079183 0.06625159642401023 0.06912515964240103 0.06912515964240103 0.08349297573435505 0.08636653895274585 0.06337803320561941 0.07199872286079183 0.08061941251596424 0.0518837803320562 0.09498722860791826 0.08349297573435505 0.00590676883780332 0.0001596424010217113 0.003033205619412516 0.01740102171136654 0.003033205619412516 0.07166136122479914 0.06552220706381688 0.06961497650447172 0.07097923298469 0.0812111565863271 0.07643625890556312 0.06893284826436258 0.07166136122479914 0.08325754130665453 0.0743898741852357 0.07984690010610883 0.07780051538578141 0.08462179778687282 0.002766408973775958 0.007541306654539941 0.00617705017432166 0.004130665453994239 0.003448537213885099 0.07287044287827373 0.06973810145305838 0.07678586965979291 0.07756895501609674 0.07678586965979291 0.06895501609675454 0.07913512572870442 0.0744366135908814 0.0830505525102236 0.08226746715391976 0.07521969894718523 0.06660576002784303 0.07913512572870442 0.003958931523536065 0.001609675454624554 0.002392760810928391 0.003175846167232228 0.006308187592447576 0.0661899523285662 0.1057939127246058 0.0562889622295563 0.085991932526586 0.0628896222955629 0.0958929226255959 0.04968830216354969 0.085991932526586 0.085991932526586 0.0562889622295563 0.07609094242757609 0.0628896222955629 0.0892922625595893 0.0001833516685001834 0.01008434176751008 0.006784011734506783 0.003483681701503484 0.0001833516685001834 0.05555555555555555 0.05555555555555555 0.05555555555555555 0.05555555555555555 0.05555555555555555 0.05555555555555555 0.05555555555555555 0.05555555555555555 0.05555555555555555 0.05555555555555555 0.05555555555555555 0.05555555555555555 0.05555555555555555 0.05555555555555555 0.05555555555555555 0.05555555555555555 0.05555555555555555 0.05555555555555555 0.05555555555555555 0.05555555555555555 0.05555555555555555 0.05555555555555555 0.05555555555555555 0.05555555555555555 0.05555555555555555 0.05555555555555555 0.05555555555555555 0.05555555555555555 0.05555555555555555 0.05555555555555555 0.05555555555555555 0.05555555555555555 0.05555555555555555 0.05555555555555555 0.05555555555555555 0.05555555555555555 0.05555555555555555 0.05555555555555555 0.05555555555555555 0.05555555555555555 0.05555555555555555 0.05555555555555555 0.05555555555555555 0.05555555555555555 0.05555555555555555 0.05555555555555555 0.05555555555555555 0.05555555555555555 0.05555555555555555 0.05555555555555555 0.05555555555555555 0.05555555555555555 0.05555555555555555 0.05555555555555555 0.02777777777777778 0.02777777777777778 0.02777777777777778 0.02777777777777778 0.02777777777777778 0.02777777777777778 0.02777777777777778 0.02777777777777778 0.02777777777777778 0.02777777777777778 0.5277777777777778 0.02777777777777778 0.02777777777777778 0.02777777777777778 0.02777777777777778 0.02777777777777778 0.02777777777777778 0.02777777777777778 0.05555555555555555 0.05555555555555555 0.05555555555555555 0.05555555555555555 0.05555555555555555 0.05555555555555555 0.05555555555555555 0.05555555555555555 0.05555555555555555 0.05555555555555555 0.05555555555555555 0.05555555555555555 0.05555555555555555 0.05555555555555555 0.05555555555555555 0.05555555555555555 0.05555555555555555 0.05555555555555555 0.05555555555555555 0.05555555555555555 0.05555555555555555 0.05555555555555555 0.05555555555555555 0.05555555555555555 0.05555555555555555 0.05555555555555555 0.05555555555555555 0.05555555555555555 0.05555555555555555 0.05555555555555555 0.05555555555555555 0.05555555555555555 0.05555555555555555 0.05555555555555555 0.05555555555555555 0.05555555555555555 0.07164489873178119 0.05460912360401288 0.07505205375733486 0.07845920878288852 0.06994132121900436 0.083569941321219 0.09890213893621048 0.07164489873178119 0.06823774370622752 0.0614234336551202 0.08697709634677267 0.05460912360401288 0.09038425137232634 0.003501798220707931 0.01201968578459209 0.005205375733484762 0.008612530759038424 0.005205375733484762 0.06688453159041395 0.08649237472766885 0.08257080610021787 0.07864923747276689 0.06688453159041395 0.07864923747276689 0.04335511982570806 0.05904139433551198 0.06296296296296297 0.09041394335511983 0.09825708061002179 0.07080610021786493 0.09041394335511983 0.008061002178649237 0.0002178649237472767 0.004139433551198257 0.004139433551198257 0.008061002178649237 0.06165649842854502 0.05167313736365318 0.07163985949343687 0.07995932704751341 0.09327047513403587 0.1015899426881124 0.06332039193936033 0.06997596598262155 0.07330375300425218 0.06165649842854502 0.08162322055832871 0.09826215566648179 0.0583287114069144 0.003420225550009244 0.005084119060824552 0.01173969310408578 0.006748012571639859 0.006748012571639859 0.0721666908107586 0.0721666908107586 0.07042831619102806 0.0721666908107586 0.07607803370515234 0.07086290984596069 0.08650828142353566 0.0721666908107586 0.07825100197981553 0.06738616060649959 0.07694722101501762 0.08650828142353566 0.07129750350089333 0.005239267951132358 0.005239267951132358 0.00480467429619972 0.006977642570862911 0.00480467429619972 0.07212295474772369 0.06719381118641747 0.06534538235092764 0.08444581365098924 0.07951667008968302 0.0801328130348463 0.07828438419935647 0.07150681180256042 0.07027452591223386 0.07458752652837682 0.07335524063805025 0.08506195659615252 0.08136509892517285 0.003114944889436571 0.004347230779763127 0.001882658999110016 0.004347230779763127 0.003114944889436571 0.05609624222762909 0.0852933225195999 0.0706947823736145 0.07556096242227629 0.07556096242227629 0.0706947823736145 0.06582860232495269 0.0804271424709381 0.07556096242227629 0.0731278723979454 0.0706947823736145 0.0901595025682617 0.0731278723979454 0.002568261692349284 0.005001351716680183 0.009867531765341985 0.009867531765341985 0.009867531765341985 0.053874883286648 0.06395891690009338 0.07740429505135388 0.05555555555555556 0.05723622782446312 0.07404295051353875 0.08076563958916901 0.09589169000933707 0.07908496732026145 0.07068160597572364 0.07572362278244632 0.09253034547152195 0.07404295051353875 0.01017740429505135 0.003454715219421102 0.01353874883286648 0.01521942110177404 0.006816059757236228 0.08456046407853636 0.07251227130745203 0.07652833556448015 0.09259259259259259 0.07251227130745203 0.06448014279339581 0.07652833556448015 0.06849620705042392 0.05243195002231146 0.06448014279339581 0.09259259259259259 0.04841588576528335 0.09660865684962071 0.01227130745203034 0.004239178937974118 0.004239178937974118 0.004239178937974118 0.01227130745203034 0.04960951366702165 0.06718139865104722 0.06877884274050408 0.08315583954561591 0.08315583954561591 0.07996095136670217 0.08954561590344338 0.06877884274050408 0.08635072772452965 0.0735711750088747 0.057596734114306 0.07037628682996096 0.06718139865104722 0.00647852325168619 0.01766063187788427 0.009673411430599929 0.0112708555200568 0.009673411430599929 0.07257998190640677 0.05851632535570359 0.06665844230611069 0.06813882720618471 0.07998190640677685 